{"learner":{"attributes":{"best_iteration":"199","best_score":"0.38212931267514066","scikit_learn":"{\"_estimator_type\": \"classifier\"}"},"feature_names":[],"feature_types":[],"gradient_booster":{"model":{"cats":{"enc":[],"feature_segments":[],"sorted_idx":[]},"gbtree_model_param":{"num_parallel_tree":"1","num_trees":"200"},"iteration_indptr":[0,1,2,3,4,5,6,7,8,9,10,11,12,13,14,15,16,17,18,19,20,21,22,23,24,25,26,27,28,29,30,31,32,33,34,35,36,37,38,39,40,41,42,43,44,45,46,47,48,49,50,51,52,53,54,55,56,57,58,59,60,61,62,63,64,65,66,67,68,69,70,71,72,73,74,75,76,77,78,79,80,81,82,83,84,85,86,87,88,89,90,91,92,93,94,95,96,97,98,99,100,101,102,103,104,105,106,107,108,109,110,111,112,113,114,115,116,117,118,119,120,121,122,123,124,125,126,127,128,129,130,131,132,133,134,135,136,137,138,139,140,141,142,143,144,145,146,147,148,149,150,151,152,153,154,155,156,157,158,159,160,161,162,163,164,165,166,167,168,169,170,171,172,173,174,175,176,177,178,179,180,181,182,183,184,185,186,187,188,189,190,191,192,193,194,195,196,197,198,199,200],"tree_info":[0,0,0,0,0,0,0,0,0,0,0,0,0,0,0,0,0,0,0,0,0,0,0,0,0,0,0,0,0,0,0,0,0,0,0,0,0,0,0,0,0,0,0,0,0,0,0,0,0,0,0,0,0,0,0,0,0,0,0,0,0,0,0,0,0,0,0,0,0,0,0,0,0,0,0,0,0,0,0,0,0,0,0,0,0,0,0,0,0,0,0,0,0,0,0,0,0,0,0,0,0,0,0,0,0,0,0,0,0,0,0,0,0,0,0,0,0,0,0,0,0,0,0,0,0,0,0,0,0,0,0,0,0,0,0,0,0,0,0,0,0,0,0,0,0,0,0,0,0,0,0,0,0,0,0,0,0,0,0,0,0,0,0,0,0,0,0,0,0,0,0,0,0,0,0,0,0,0,0,0,0,0,0,0,0,0,0,0,0,0,0,0,0,0,0,0,0,0,0,0],"trees":[{"base_weights":[-1.0601808E-2,-7.5345975E-1,3.1343618E-1,-2.204301E-1,-1.0731306E0,2.4466751E-2,1.0223938E0,5.1655626E-1,-5.3270143E-1,-1.3313504E0,-4.8382923E-1,-1.0037174E0,1.1881188E-1,5.981957E-1,1.5278015E0,8.4548104E-1,-4.3076923E-1,8.3076924E-1,-6.09901E-1,-1.4010025E0,-1.904762E-2,-7.816514E-1,2.0967741E-1,-1.0646387E0,3.125E-2,-7.574751E-1,2.1834724E-1,-3.859649E-1,7.704785E-1,-2.535211E-1,1.6135957E0,-3.6842104E-2,9.7846156E-1,-8.695652E-1,4.1379312E-1,6.1538465E-2,-1.5151516E-2,-1.0086956E0,-2.6666668E-1,4E-1,-1.440613E0,5.714286E-1,-7.6363635E-1,-1.2466367E0,-4.3274853E-1,-7.246377E-1,5.125628E-1,-1.1242603E0,1.2820514E-2,-3.5E-1,-1.1390729E0,3.869654E-2,7.3099416E-1,-6.934673E-1,5.102041E-2,-5.785124E-1,9.0106004E-1,2.9411767E-2,-6.666667E-1,-2.857143E-1,1.6694214E0,1.1477664E0,-2.962963E-1,7.692308E-3,-1.1780822E0,-2.1212121E-2,4.2222224E-2,2.857143E-2,-1.1141553E0,-1.1034483E0,-5.0632913E-2,4.2105265E-2,-1.875E-2,-9.904762E-1,-1.5780447E0,-2.1212121E-2,9.4736844E-1,-0E0,-5.121951E-2,-1.3364929E0,6.25E-3,4.3010753E-2,-8.863636E-1,-4.909091E-2,5.882353E-3,-4.918033E-1,8.35443E-1,4.4444446E-2,-1.186722E0,6.885246E-1,-5.519713E-1,-1.2413793E0,2.5E-2,2.492442E-1,-6.07621E-1,-1.8320611E-1,9.3072826E-1,3.846154E-1,-9.461078E-1,2.6415095E-1,-9.5454544E-1,-1.14285715E-1,1.0237154E0,-4.6666667E-2,6.25E-3,-4.0540542E-2,2.5E-2,-1.1764706E-1,1.7240076E0,1.2862453E0,-1.4285715E-2,1.875E-2,-3.3333335E-2,-6.721311E-2,-6.25E-3,-1.1980441E0,4.0816326E-2,-0E0,-7.111111E-2,3.75E-1,-5.042017E-1,-1.322314E0,-4.848485E-1,-1.6136962E0,-4.255319E-2,5.555556E-2,6.25E-3,-2.9787233E-1,-1.4565217E0,4E-1,-6.4788735E-1,-1.0429448E0,2.1212121E-2,7.317073E-3,-4.4999998E-2,1.0814815E0,-1.627907E-2,3.125E-2,-2.727273E-2,-1.2360516E0,5.5555557E-3,-1.875E-2,5.510204E-2,-1.2380953E0,-1.2371134E-1,-1.3612168E0,-4.255319E-2,5.1519834E-3,6.931818E-1,-7.904762E-1,4.9006623E-1,6.666667E-1,-4.7342995E-1,-3.7623763E-1,1.0392344E0,4.2105265E-2,-1.764706E-2,-1.2653061E0,-3.8202247E-1,3.846154E-2,-2.3529412E-2,6.25E-3,-1.1578947E0,5.1428574E-1,-5.777778E-1,-4.864865E-1,1.1189979E0,2.3529412E-2,-2.972973E-2,-1.764706E-2,1.7586207E0,-2.8571428E-3,1.3700787E0,-3.529412E-1,-1.3372093E0,2.9411767E-2,-2.5714288E-2,2.5E-2,-2.3529412E-2,-5.3521127E-1,6.536585E-1,-1.0847458E0,5.7142857E-2,-1.1764706E-1,-1.4881517E0,-5.7971016E-2,-1.1E0,-1.6373333E0,5.882353E-3,-3.142857E-2,3.125E-2,-3.7142858E-2,1.875E-2,-1.4285715E-2,-1.5266272E0,-3.1707317E-2,7.017544E-1,-9.4736844E-1,1.1764706E-2,2.4390244E-3,-1.2112676E0,-1.0526316E-2,1.3162394E0,3.0303032E-3,-1.2759382E0,-7.011494E-2,-1.0526316E-2,3.508772E-1,-6.4E-1,-4E-1,-1.5229357E0,-3.529412E-2,3.3333335E-2,3.5410485E-1,-3.6631578E-1,-4.7482014E-1,8.5165423E-1,-1.16838485E-1,-1.1072056E0,-3.1578947E-2,7.368421E-1,-1.8181819E-1,5.686275E-2,-8.405797E-1,2.0224719E-1,2.5E-2,-7.160494E-1,2.882883E-1,1.2123369E0,-1.4285715E-2,-6.8674706E-2,3.6363637E-1,-7.692308E-1,-6.25E-3,-6.5625004E-2,8.5714287E-1,-1.764706E-2,-9.589041E-1,2.4324326E-2,-8.3870965E-1,2.5E-2,-4.9056605E-1,1.187027E0,-1.4285715E-2,1.7939748E0,1.4576272E0,5.263158E-3,2.777778E-2,-7.246377E-1,-1.3920972E0,-2.8571428E-3,-5.294118E-2,2.0000001E-2,8.700565E-1,-4.1666666E-1,-1.3076923E0,1.1764706E-2,-4.6428572E-2,5.769231E-1,3.125E-2,-3.3333335E-2,-1.5532995E0,-1.1764706E-2,4.2696628E-1,-6.666667E-1,-0E0,-6.4705886E-2,-1.6639566E0,-0E0,-7.948718E-2,-1.5151516E-2,-1.904762E-2,1.0434783E0,-6.25E-3,-5.555556E-2,-1.36E0,-2.7027028E-3,6.25E-3,1.4285715E0,-1.3349168E0,-3.0769232E-1,-5.777778E-1,7.4157304E-1,-9.0909094E-1,2.5E-2,-4.418605E-2,1.4285715E-2,-1.2820514E-2,-8.090453E-2,7.7434677E-1,5.2459016E-2,1.595092E-1,-6.21118E-1,3.188406E-1,-9.777778E-1,-6.909091E-1,9.268293E-1,-9.130435E-1,2.283105E-1,-2.5974026E-2,-1.2265625E0,-2.5E-2,9.4214875E-1,-3.125E-2,1.875E-2,-1.0158731E0,1.875E-2,7.368421E-1,-4.6153846E-1,-9.5652175E-1,1.25E-2,-3.846154E-2,4.6305418E-1,-2.857143E-2,1.2740561E0,-6.25E-3,3.125E-2,-5.294118E-2,5.882353E-3,5.2380957E-2,5.882353E-3,6.25E-3,-6.065574E-2,6.25E-3,-5.6E-2,1.1764706E-2,-4.3589745E-2,-1.9178082E-1,1.2752293E0,-5.5555557E-3,1.8262587E0,7.589286E-2,6.25E-3,5.5555557E-3,-5.09434E-2,-2.1428572E-2,-7.406144E-2,5.0920248E-2,-1.764706E-2,-4.4444446E-2,1.875E-2,-3.0303032E-3,-7.362638E-2,-8.474576E-3,5.3846158E-2,-8.1318684E-2,-1.4285715E-2,-3.1578947E-2,4.3661974E-2,2.1212121E-2,-5.357143E-2,-0E0,-8.410959E-2,6.363636E-2,-2.8571428E-3,-7.272728E-2,-1.4285715E-2,7.634409E-2,1.25E-2,-6.8627454E-2,-3.0303032E-3,-4.0540542E-2,2.0000001E-2,-0E0,-3.9393943E-2,-1.5151516E-2,5E-2,2.5641026E-3,-5.9420288E-2,4.4529263E-2,-2.5E-2,-8.685969E-3,3.038674E-2,2.8865978E-2,-1.9736843E-2,-4.782609E-2,-8.108108E-3,3.877551E-2,-2.0000001E-2,-6.285714E-2,-0E0,1.25E-2,-5.3488374E-2,-2.1212121E-2,5.046729E-2,-9.09091E-3,-6.491228E-2,-2.3809524E-2,2.9032258E-2,-3.846154E-2,2.4137931E-2,-6.504065E-2,1.5000001E-2,6.039604E-2,-1.0000001E-2,1.1764706E-2,-6.0714286E-2,5E-2,2.7027028E-3,-4.4444446E-2,1.1111111E-2,-5.636364E-2,-5.882353E-3,4.2222224E-2,-1.1363637E-2,-7.1428576E-3,6.713376E-2,2.0833334E-2,-3.7777778E-2,-2.6086956E-2,6.7139484E-2,5.882353E-3,9.239239E-2],"categories":[],"categories_nodes":[],"categories_segments":[],"categories_sizes":[],"default_left":[0,0,0,0,0,0,0,0,0,0,0,0,0,0,0,0,0,0,0,0,0,0,0,0,0,0,0,0,0,0,0,0,0,0,0,0,0,0,0,0,0,0,0,0,0,0,0,0,0,0,0,0,0,0,0,0,0,0,0,0,0,0,0,0,0,0,0,0,0,0,0,0,0,0,0,0,0,0,0,0,0,0,0,0,0,0,0,0,0,0,0,0,0,0,0,0,0,0,0,0,0,0,0,0,0,0,0,0,0,0,0,0,0,0,0,0,0,0,0,0,0,0,0,0,0,0,0,0,0,0,0,0,0,0,0,0,0,0,0,0,0,0,0,0,0,0,0,0,0,0,0,0,0,0,0,0,0,0,0,0,0,0,0,0,0,0,0,0,0,0,0,0,0,0,0,0,0,0,0,0,0,0,0,0,0,0,0,0,0,0,0,0,0,0,0,0,0,0,0,0,0,0,0,0,0,0,0,0,0,0,0,0,0,0,0,0,0,0,0,0,0,0,0,0,0,0,0,0,0,0,0,0,0,0,0,0,0,0,0,0,0,0,0,0,0,0,0,0,0,0,0,0,0,0,0,0,0,0,0,0,0,0,0,0,0,0,0,0,0,0,0,0,0,0,0,0,0,0,0,0,0,0,0,0,0,0,0,0,0,0,0,0,0,0,0,0,0,0,0,0,0,0,0,0,0,0,0,0,0,0,0,0,0,0,0,0,0,0,0,0,0,0,0,0,0,0,0,0,0,0,0,0,0,0,0,0,0,0,0,0,0,0,0,0,0,0,0,0,0,0,0,0,0,0,0,0,0,0,0,0,0,0,0,0,0,0,0,0,0,0,0,0,0,0,0,0,0,0,0,0,0,0,0,0,0,0,0,0,0,0,0,0,0,0,0,0,0,0,0,0,0,0,0,0,0,0,0,0,0,0,0,0,0],"id":0,"left_children":[1,3,5,7,9,11,13,15,17,19,21,23,25,27,29,31,33,35,37,39,41,43,45,47,-1,49,51,53,55,57,59,-1,61,63,65,-1,-1,67,69,71,73,75,77,79,81,83,85,87,-1,89,91,93,95,97,-1,99,101,-1,103,105,107,109,111,-1,113,-1,-1,-1,115,117,119,-1,-1,121,123,-1,125,-1,-1,127,-1,129,131,-1,-1,133,135,137,139,141,143,145,-1,147,149,151,153,155,157,159,161,163,165,-1,-1,-1,-1,167,169,171,-1,-1,-1,-1,-1,173,175,177,-1,179,181,183,185,187,189,-1,-1,191,193,195,197,199,-1,-1,-1,201,-1,-1,-1,203,-1,-1,-1,205,207,209,211,213,215,217,219,221,223,225,227,-1,-1,229,231,-1,-1,-1,233,235,237,239,241,-1,-1,-1,243,-1,245,247,249,-1,-1,-1,-1,251,253,255,257,259,261,263,265,267,-1,-1,-1,-1,-1,-1,269,-1,271,273,-1,-1,275,-1,277,-1,279,-1,-1,281,283,285,287,-1,-1,289,291,293,295,297,299,-1,301,303,-1,305,307,-1,309,311,313,-1,-1,315,317,-1,-1,319,-1,321,-1,323,-1,325,327,-1,329,331,-1,-1,333,335,-1,-1,-1,337,339,341,-1,-1,343,-1,-1,345,-1,347,349,-1,-1,351,-1,-1,-1,-1,353,-1,-1,355,-1,-1,357,359,361,363,365,367,-1,-1,-1,-1,-1,369,371,373,375,377,379,381,383,385,387,389,391,-1,393,-1,-1,395,-1,397,399,401,-1,-1,403,-1,405,-1,-1,-1,-1,-1,-1,-1,-1,-1,-1,-1,-1,407,409,-1,411,-1,-1,-1,-1,-1,-1,-1,-1,-1,-1,-1,-1,-1,-1,-1,-1,-1,-1,-1,-1,-1,-1,-1,-1,-1,-1,-1,-1,-1,-1,-1,-1,-1,-1,-1,-1,-1,-1,-1,-1,-1,-1,-1,-1,-1,-1,-1,-1,-1,-1,-1,-1,-1,-1,-1,-1,-1,-1,-1,-1,-1,-1,-1,-1,-1,-1,-1,-1,-1,-1,-1,-1,-1,-1,-1,-1,-1,-1,-1,-1,-1,-1],"loss_changes":[7.731512E2,1.6503668E2,4.5806018E2,8.698782E1,8.937427E1,1.5522092E2,1.3424988E2,3.7109596E1,3.0295586E1,3.8279358E1,4.0733646E1,1.6672562E1,1.285629E2,6.2568695E1,4.6709167E1,2.1648212E1,1.3843292E1,9.2345E0,3.3217278E1,3.1345337E1,1.3722944E1,1.9407082E1,1.9402515E1,1.1798706E1,0E0,2.1408112E1,1.2133501E2,2.8188498E1,5.690564E1,8.133664E0,3.2020386E1,0E0,1.9235985E1,8.168234E0,7.024312E0,0E0,0E0,2.2346817E1,2.548081E1,5.861842E0,1.6404297E1,8.560037E0,2.737916E0,7.7064896E0,1.8642506E1,4.3142214E0,1.8187794E1,9.516357E0,0E0,1.8680405E1,1.576387E1,1.3438843E2,6.3300735E1,1.5369711E1,0E0,1.0846015E1,3.5829132E1,0E0,3.5916667E0,7.0810814E0,2.7571838E1,1.6278877E1,4.6064816E0,0E0,2.353609E0,0E0,0E0,0E0,1.0853851E1,1.02007675E1,2.3822252E1,0E0,0E0,1.4411972E1,1.5614197E1,0E0,1.2244158E0,0E0,0E0,4.406769E0,0E0,1.2764683E1,1.1241821E1,0E0,0E0,4.630988E0,1.3043989E1,5.5573235E0,8.401276E0,8.773044E0,1.9729465E1,1.0126038E1,0E0,8.0630356E1,5.066118E1,1.7733892E1,4.187561E1,5.872589E0,5.1004257E0,6.7270555E0,5.5532303E0,1.168254E1,3.9127533E1,0E0,0E0,0E0,0E0,4.9761524E0,2.2118286E1,7.9652023E0,0E0,0E0,0E0,0E0,0E0,9.665741E0,5.235054E0,3.8823528E0,0E0,1.7982067E1,1.97001E1,1.121125E1,1.2679579E1,1.2616272E1,6.5608664E0,0E0,0E0,4.9110184E0,1.59478E0,1.275704E1,5.809358E0,7.783745E0,0E0,0E0,0E0,1.1622189E1,0E0,0E0,0E0,6.411957E0,0E0,0E0,0E0,2.9530716E0,1.3006504E1,7.174782E0,7.880685E0,6.354898E1,5.0887276E1,4.4158966E1,1.2775881E1,8.520499E0,1.3687891E1,9.308458E0,3.2212524E1,0E0,0E0,6.343727E-1,7.82274E0,0E0,0E0,0E0,2.2138157E0,6.715966E0,1.1458901E1,8.524847E0,2.913617E1,0E0,0E0,0E0,2.1426697E1,0E0,6.2643433E0,9.18869E0,5.644638E0,0E0,0E0,0E0,0E0,1.0809611E1,1.3682945E1,1.0220264E1,2.0610987E1,7.2818627E0,2.4780884E0,1.1606905E1,4.270588E0,1.226001E1,0E0,0E0,0E0,0E0,0E0,0E0,8.5422516E-1,0E0,1.25322E1,1.2244158E0,0E0,0E0,5.7425194E0,0E0,3.0212173E0,0E0,4.4135284E0,0E0,0E0,1.24827385E1,9.941818E0,6.652491E0,4.493637E0,0E0,0E0,3.1836554E1,3.231594E1,1.54302025E1,3.0365936E1,2.1034668E1,1.819841E1,0E0,1.0798609E1,3.8863635E0,0E0,9.256126E0,9.595961E0,0E0,5.899892E0,1.2038392E1,2.6842133E1,0E0,0E0,1.7954545E0,4.79638E0,0E0,0E0,1.3557425E0,0E0,5.7868004E0,0E0,4.9017744E0,0E0,4.6921654E0,2.934607E1,0E0,1.6836365E1,3.7869186E0,0E0,0E0,4.8078566E0,3.8896027E0,0E0,0E0,0E0,9.825455E0,6.1527777E0,4.8984337E0,0E0,0E0,1.0616036E1,0E0,0E0,2.2385254E0,0E0,1.3268506E1,9.88961E0,0E0,0E0,8.397278E0,0E0,0E0,0E0,0E0,6.166912E0,0E0,0E0,1.0961075E0,0E0,0E0,1.1328697E0,4.6313477E0,6.250312E0,1.3656564E0,7.5216208E0,6.2061405E0,0E0,0E0,0E0,0E0,0E0,1.7816944E1,1.9680563E1,2.001238E1,2.4008057E1,7.213724E0,6.1460323E0,6.238689E0,2.7281067E1,5.298176E0,1.4972538E1,9.135554E0,1.6459763E1,0E0,1.0390345E1,0E0,0E0,9.2483635E0,0E0,2.290185E0,4.786325E0,1.807765E0,0E0,0E0,1.4321259E1,0E0,2.0914948E1,0E0,0E0,0E0,0E0,0E0,0E0,0E0,0E0,0E0,0E0,0E0,0E0,7.8343225E0,2.9968903E1,0E0,8.254883E0,0E0,0E0,0E0,0E0,0E0,0E0,0E0,0E0,0E0,0E0,0E0,0E0,0E0,0E0,0E0,0E0,0E0,0E0,0E0,0E0,0E0,0E0,0E0,0E0,0E0,0E0,0E0,0E0,0E0,0E0,0E0,0E0,0E0,0E0,0E0,0E0,0E0,0E0,0E0,0E0,0E0,0E0,0E0,0E0,0E0,0E0,0E0,0E0,0E0,0E0,0E0,0E0,0E0,0E0,0E0,0E0,0E0,0E0,0E0,0E0,0E0,0E0,0E0,0E0,0E0,0E0,0E0,0E0,0E0,0E0,0E0,0E0,0E0,0E0,0E0,0E0,0E0,0E0,0E0,0E0,0E0,0E0],"parents":[2147483647,0,0,1,1,2,2,3,3,4,4,5,5,6,6,7,7,8,8,9,9,10,10,11,11,12,12,13,13,14,14,15,15,16,16,17,17,18,18,19,19,20,20,21,21,22,22,23,23,25,25,26,26,27,27,28,28,29,29,30,30,32,32,33,33,34,34,37,37,38,38,39,39,40,40,41,41,42,42,43,43,44,44,45,45,46,46,47,47,49,49,50,50,51,51,52,52,53,53,55,55,56,56,58,58,59,59,60,60,61,61,62,62,64,64,68,68,69,69,70,70,73,73,74,74,76,76,79,79,81,81,82,82,85,85,86,86,87,87,88,88,89,89,90,90,91,91,93,93,94,94,95,95,96,96,97,97,98,98,99,99,100,100,101,101,102,102,107,107,108,108,109,109,115,115,116,116,117,117,119,119,120,120,121,121,122,122,123,123,124,124,127,127,128,128,129,129,130,130,131,131,135,135,139,139,143,143,144,144,145,145,146,146,147,147,148,148,149,149,150,150,151,151,152,152,153,153,154,154,157,157,158,158,162,162,163,163,164,164,165,165,166,166,170,170,172,172,173,173,174,174,179,179,180,180,181,181,182,182,183,183,184,184,185,185,186,186,187,187,194,194,196,196,197,197,200,200,202,202,204,204,207,207,208,208,209,209,210,210,213,213,214,214,215,215,216,216,217,217,218,218,220,220,221,221,223,223,224,224,226,226,227,227,228,228,231,231,232,232,235,235,237,237,239,239,241,241,242,242,244,244,245,245,248,248,249,249,253,253,254,254,255,255,258,258,261,261,263,263,264,264,267,267,272,272,275,275,278,278,279,279,280,280,281,281,282,282,283,283,289,289,290,290,291,291,292,292,293,293,294,294,295,295,296,296,297,297,298,298,299,299,300,300,302,302,305,305,307,307,308,308,309,309,312,312,314,314,327,327,328,328,330,330],"right_children":[2,4,6,8,10,12,14,16,18,20,22,24,26,28,30,32,34,36,38,40,42,44,46,48,-1,50,52,54,56,58,60,-1,62,64,66,-1,-1,68,70,72,74,76,78,80,82,84,86,88,-1,90,92,94,96,98,-1,100,102,-1,104,106,108,110,112,-1,114,-1,-1,-1,116,118,120,-1,-1,122,124,-1,126,-1,-1,128,-1,130,132,-1,-1,134,136,138,140,142,144,146,-1,148,150,152,154,156,158,160,162,164,166,-1,-1,-1,-1,168,170,172,-1,-1,-1,-1,-1,174,176,178,-1,180,182,184,186,188,190,-1,-1,192,194,196,198,200,-1,-1,-1,202,-1,-1,-1,204,-1,-1,-1,206,208,210,212,214,216,218,220,222,224,226,228,-1,-1,230,232,-1,-1,-1,234,236,238,240,242,-1,-1,-1,244,-1,246,248,250,-1,-1,-1,-1,252,254,256,258,260,262,264,266,268,-1,-1,-1,-1,-1,-1,270,-1,272,274,-1,-1,276,-1,278,-1,280,-1,-1,282,284,286,288,-1,-1,290,292,294,296,298,300,-1,302,304,-1,306,308,-1,310,312,314,-1,-1,316,318,-1,-1,320,-1,322,-1,324,-1,326,328,-1,330,332,-1,-1,334,336,-1,-1,-1,338,340,342,-1,-1,344,-1,-1,346,-1,348,350,-1,-1,352,-1,-1,-1,-1,354,-1,-1,356,-1,-1,358,360,362,364,366,368,-1,-1,-1,-1,-1,370,372,374,376,378,380,382,384,386,388,390,392,-1,394,-1,-1,396,-1,398,400,402,-1,-1,404,-1,406,-1,-1,-1,-1,-1,-1,-1,-1,-1,-1,-1,-1,408,410,-1,412,-1,-1,-1,-1,-1,-1,-1,-1,-1,-1,-1,-1,-1,-1,-1,-1,-1,-1,-1,-1,-1,-1,-1,-1,-1,-1,-1,-1,-1,-1,-1,-1,-1,-1,-1,-1,-1,-1,-1,-1,-1,-1,-1,-1,-1,-1,-1,-1,-1,-1,-1,-1,-1,-1,-1,-1,-1,-1,-1,-1,-1,-1,-1,-1,-1,-1,-1,-1,-1,-1,-1,-1,-1,-1,-1,-1,-1,-1,-1,-1,-1,-1],"split_conditions":[2.1176471E-1,3.019608E-1,6.4705884E-1,2.1176471E-1,4.3529412E-1,9.803922E-2,5.9607846E-1,4.0784314E-1,6.27451E-2,3.019608E-1,1.9215687E-1,9.529412E-1,1.05882354E-1,1.2156863E-1,1.5686275E-1,2.745098E-2,1.882353E-1,2.5490198E-1,1.8431373E-1,3.9215688E-2,4.2352942E-1,2.2352941E-1,1.6470589E-1,8.9411765E-1,3.125E-2,4.4705883E-1,6.117647E-1,9.254902E-1,7.058824E-2,6.156863E-1,2.3529412E-2,-3.6842104E-2,4.8235294E-1,4.0784314E-1,3.254902E-1,6.1538465E-2,-1.5151516E-2,8.627451E-2,2.0784314E-1,4.4313726E-1,3.764706E-1,1.5294118E-1,4.3529412E-1,7.764706E-1,4.6666667E-1,6.039216E-1,2.1960784E-1,1.7254902E-1,1.2820514E-2,1.4901961E-1,8.666667E-1,6.2352943E-1,3.6078432E-1,2.7058825E-1,5.102041E-2,3.372549E-1,1.4901961E-1,2.9411767E-2,7.9607844E-1,8.509804E-1,1.6470589E-1,8.4705883E-1,3.5686275E-1,7.692308E-3,6.901961E-1,-2.1212121E-2,4.2222224E-2,2.857143E-2,1.9607843E-1,3.8431373E-1,5.0980395E-1,4.2105265E-2,-1.875E-2,1.2156863E-1,6.862745E-1,-2.1212121E-2,4.862745E-1,-0E0,-5.121951E-2,1.8039216E-1,6.25E-3,6.0784316E-1,8.4705883E-1,-4.909091E-2,5.882353E-3,3.9215687E-1,6.666667E-1,5.294118E-1,8.666667E-1,1.7254902E-1,1.1372549E-1,7.6862746E-1,2.5E-2,4.7843137E-1,5.9607846E-1,5.647059E-1,1.01960786E-1,2.3921569E-1,2.5490198E-1,3.2941177E-1,1.1372549E-1,3.3333334E-1,1.8039216E-1,-4.6666667E-2,6.25E-3,-4.0540542E-2,2.5E-2,3.7254903E-1,7.8431375E-2,4.7058824E-2,-1.4285715E-2,1.875E-2,-3.3333335E-2,-6.721311E-2,-6.25E-3,1.4901961E-1,2.3921569E-1,3.254902E-1,-7.111111E-2,1.764706E-1,2.5882354E-1,1.6862746E-1,4.5882353E-1,8.745098E-1,3.647059E-1,5.555556E-2,6.25E-3,1.01960786E-1,2.0392157E-1,1.2941177E-1,6.1960787E-1,2.3921569E-1,2.1212121E-2,7.317073E-3,-4.4999998E-2,2.7058825E-1,-1.627907E-2,3.125E-2,-2.727273E-2,3.137255E-2,5.5555557E-3,-1.875E-2,5.510204E-2,1.9215687E-1,4.117647E-1,2.784314E-1,4.1568628E-1,4.0784314E-1,2.509804E-1,4.8235294E-1,1.9215687E-1,2.9411766E-1,4.3529412E-1,2.3921569E-1,2.5490198E-1,4.2105265E-2,-1.764706E-2,6E-1,3.647059E-1,3.846154E-2,-2.3529412E-2,6.25E-3,6E-1,7.058824E-1,8.9411765E-1,8.156863E-1,9.411765E-2,2.3529412E-2,-2.972973E-2,-1.764706E-2,2.2745098E-1,-2.8571428E-3,6.2352943E-1,2.5882354E-1,5.254902E-1,2.9411767E-2,-2.5714288E-2,2.5E-2,-2.3529412E-2,2.8627452E-1,8.4313726E-1,8.627451E-1,2.5490198E-1,2.1960784E-1,5.294118E-1,3.4901962E-1,1.4901961E-1,2.4705882E-1,5.882353E-3,-3.142857E-2,3.125E-2,-3.7142858E-2,1.875E-2,-1.4285715E-2,8.3137256E-1,-3.1707317E-2,3.0980393E-1,6.54902E-1,1.1764706E-2,2.4390244E-3,6.313726E-1,-1.0526316E-2,2.8235295E-1,3.0303032E-3,7.764706E-1,-7.011494E-2,-1.0526316E-2,1.9215687E-1,5.529412E-1,2.3921569E-1,2.0784314E-1,-3.529412E-2,3.3333335E-2,3.0588236E-1,4.4705883E-1,5.176471E-1,3.137255E-2,3.2156864E-1,3.0980393E-1,-3.1578947E-2,1.5294118E-1,6.0784316E-1,5.686275E-2,8.9411765E-1,3.529412E-1,2.5E-2,6.431373E-1,9.019608E-2,8.627451E-2,-1.4285715E-2,-6.8674706E-2,6.666667E-1,7.490196E-1,-6.25E-3,-6.5625004E-2,6.392157E-1,-1.764706E-2,6.9411767E-1,2.4324326E-2,5.019608E-1,2.5E-2,3.647059E-1,9.019608E-2,-1.4285715E-2,7.450981E-2,8.4313726E-1,5.263158E-3,2.777778E-2,2.4313726E-1,2.0392157E-1,-2.8571428E-3,-5.294118E-2,2.0000001E-2,8.156863E-1,6.392157E-1,1.2156863E-1,1.1764706E-2,-4.6428572E-2,4.9803922E-1,3.125E-2,-3.3333335E-2,4.4313726E-1,-1.1764706E-2,1.3725491E-1,2.7058825E-1,-0E0,-6.4705886E-2,1.4901961E-1,-0E0,-7.948718E-2,-1.5151516E-2,-1.904762E-2,6.431373E-1,-6.25E-3,-5.555556E-2,7.137255E-1,-2.7027028E-3,6.25E-3,6.431373E-1,7.921569E-1,5.4901963E-1,9.019608E-2,1.5686275E-1,2.3529412E-1,2.5E-2,-4.418605E-2,1.4285715E-2,-1.2820514E-2,-8.090453E-2,8.352941E-1,4.3529412E-1,3.6862746E-1,3.764706E-1,4.5490196E-1,4.9411765E-1,4E-1,9.019608E-2,3.137255E-1,3.764706E-1,3.647059E-1,7.882353E-1,-2.5E-2,8.1960785E-1,-3.125E-2,1.875E-2,5.647059E-1,1.875E-2,4.0784314E-1,4.6666667E-1,5.4509807E-1,1.25E-2,-3.846154E-2,4.5490196E-1,-2.857143E-2,1.2941177E-1,-6.25E-3,3.125E-2,-5.294118E-2,5.882353E-3,5.2380957E-2,5.882353E-3,6.25E-3,-6.065574E-2,6.25E-3,-5.6E-2,1.1764706E-2,-4.3589745E-2,4.3529412E-1,9.411765E-2,-5.5555557E-3,1.254902E-1,7.589286E-2,6.25E-3,5.5555557E-3,-5.09434E-2,-2.1428572E-2,-7.406144E-2,5.0920248E-2,-1.764706E-2,-4.4444446E-2,1.875E-2,-3.0303032E-3,-7.362638E-2,-8.474576E-3,5.3846158E-2,-8.1318684E-2,-1.4285715E-2,-3.1578947E-2,4.3661974E-2,2.1212121E-2,-5.357143E-2,-0E0,-8.410959E-2,6.363636E-2,-2.8571428E-3,-7.272728E-2,-1.4285715E-2,7.634409E-2,1.25E-2,-6.8627454E-2,-3.0303032E-3,-4.0540542E-2,2.0000001E-2,-0E0,-3.9393943E-2,-1.5151516E-2,5E-2,2.5641026E-3,-5.9420288E-2,4.4529263E-2,-2.5E-2,-8.685969E-3,3.038674E-2,2.8865978E-2,-1.9736843E-2,-4.782609E-2,-8.108108E-3,3.877551E-2,-2.0000001E-2,-6.285714E-2,-0E0,1.25E-2,-5.3488374E-2,-2.1212121E-2,5.046729E-2,-9.09091E-3,-6.491228E-2,-2.3809524E-2,2.9032258E-2,-3.846154E-2,2.4137931E-2,-6.504065E-2,1.5000001E-2,6.039604E-2,-1.0000001E-2,1.1764706E-2,-6.0714286E-2,5E-2,2.7027028E-3,-4.4444446E-2,1.1111111E-2,-5.636364E-2,-5.882353E-3,4.2222224E-2,-1.1363637E-2,-7.1428576E-3,6.713376E-2,2.0833334E-2,-3.7777778E-2,-2.6086956E-2,6.7139484E-2,5.882353E-3,9.239239E-2],"split_indices":[2976,2408,2,2297,2,2161,2687,1346,400,2985,2985,945,1599,1975,1248,1767,2881,1441,3,115,1218,1107,1236,95,0,1453,2978,382,2334,29,1590,0,2578,637,97,0,0,1531,1007,2125,2636,168,1834,2864,2543,625,1792,2999,0,938,2972,2178,2305,2907,0,2810,1821,0,142,65,2206,1296,1226,0,87,0,0,0,2979,320,744,0,0,2880,2888,0,346,0,0,2821,0,1537,1556,0,0,1140,1888,564,2987,2055,1533,676,0,3067,2975,3020,1194,2274,1855,2151,1760,3042,2882,0,0,0,0,1275,1632,1287,0,0,0,0,0,316,401,541,0,1494,2953,772,1829,2851,1220,0,0,2892,2311,1857,2228,2668,0,0,0,0,0,0,0,1342,0,0,0,1818,1291,2703,1328,2750,2206,2115,1208,3063,2362,1348,1635,0,0,148,1854,0,0,0,122,1582,579,320,1580,0,0,0,485,0,1647,2852,2319,0,0,0,0,2589,1498,255,1454,325,2775,2444,2986,2979,0,0,0,0,0,0,79,0,1562,1639,0,0,2587,0,824,0,2930,0,0,811,281,345,2745,0,0,2901,2627,3021,1773,1670,2282,0,1664,1289,0,2915,770,0,653,1866,1850,0,0,508,433,0,0,971,0,101,0,861,0,2334,2578,0,928,1010,0,0,2135,1034,0,0,0,2369,1578,2539,0,0,1793,0,0,98,0,2536,1268,0,0,2498,0,0,0,0,1981,0,0,1119,0,0,1401,220,2114,1408,1354,1418,0,0,0,0,0,1585,2977,2385,94,2483,2242,2835,2082,2309,1106,3031,268,0,516,0,0,2891,0,2008,32,289,0,0,787,0,2491,0,0,0,0,0,0,0,0,0,0,0,0,2037,1372,0,2017,0,0,0,0,0,0,0,0,0,0,0,0,0,0,0,0,0,0,0,0,0,0,0,0,0,0,0,0,0,0,0,0,0,0,0,0,0,0,0,0,0,0,0,0,0,0,0,0,0,0,0,0,0,0,0,0,0,0,0,0,0,0,0,0,0,0,0,0,0,0,0,0,0,0,0,0,0,0,0,0,0,0],"split_type":[0,0,0,0,0,0,0,0,0,0,0,0,0,0,0,0,0,0,0,0,0,0,0,0,0,0,0,0,0,0,0,0,0,0,0,0,0,0,0,0,0,0,0,0,0,0,0,0,0,0,0,0,0,0,0,0,0,0,0,0,0,0,0,0,0,0,0,0,0,0,0,0,0,0,0,0,0,0,0,0,0,0,0,0,0,0,0,0,0,0,0,0,0,0,0,0,0,0,0,0,0,0,0,0,0,0,0,0,0,0,0,0,0,0,0,0,0,0,0,0,0,0,0,0,0,0,0,0,0,0,0,0,0,0,0,0,0,0,0,0,0,0,0,0,0,0,0,0,0,0,0,0,0,0,0,0,0,0,0,0,0,0,0,0,0,0,0,0,0,0,0,0,0,0,0,0,0,0,0,0,0,0,0,0,0,0,0,0,0,0,0,0,0,0,0,0,0,0,0,0,0,0,0,0,0,0,0,0,0,0,0,0,0,0,0,0,0,0,0,0,0,0,0,0,0,0,0,0,0,0,0,0,0,0,0,0,0,0,0,0,0,0,0,0,0,0,0,0,0,0,0,0,0,0,0,0,0,0,0,0,0,0,0,0,0,0,0,0,0,0,0,0,0,0,0,0,0,0,0,0,0,0,0,0,0,0,0,0,0,0,0,0,0,0,0,0,0,0,0,0,0,0,0,0,0,0,0,0,0,0,0,0,0,0,0,0,0,0,0,0,0,0,0,0,0,0,0,0,0,0,0,0,0,0,0,0,0,0,0,0,0,0,0,0,0,0,0,0,0,0,0,0,0,0,0,0,0,0,0,0,0,0,0,0,0,0,0,0,0,0,0,0,0,0,0,0,0,0,0,0,0,0,0,0,0,0,0,0,0,0,0,0,0,0,0,0,0,0,0,0,0,0,0,0,0,0,0,0,0,0,0,0,0],"sum_hessian":[3.202E3,9.705E2,2.2315E3,3.67E2,6.035E2,1.589E3,6.425E2,1.0825E2,2.5875E2,4.1525E2,1.8825E2,1.295E2,1.4595E3,3.5525E2,2.8725E2,8.075E1,2.75E1,1.125E1,2.475E2,3.94E2,2.125E1,1.3125E2,5.7E1,1.265E2,3E0,1.455E2,1.314E3,5.2E1,3.0325E2,1.275E1,2.745E2,4.5E0,7.625E1,1.8E1,9.5E0,8E0,3.25E0,1.1E2,1.375E2,7.5E0,3.865E2,1.25E1,8.75E0,5.075E1,8.05E1,1.225E1,4.475E1,1.2175E2,4.75E0,7.5E1,7.05E1,9.77E2,3.37E2,4.475E1,7.25E0,2.525E1,2.78E2,3.5E0,9.25E0,7.25E0,2.6725E2,6.775E1,8.5E0,4.75E0,1.325E1,3.25E0,6.25E0,5.5E0,1.045E2,2.4E1,1.135E2,4.5E0,3E0,1E2,2.865E2,3.25E0,9.25E0,3.5E0,5.25E0,4.775E1,3E0,4.15E1,3.9E1,8.75E0,3.5E0,1.025E1,3.45E1,6.25E0,1.155E2,1.025E1,6.475E1,6.75E1,3E0,7.3925E2,2.3775E2,6.05E1,2.765E2,8E0,3.675E1,8.25E0,1.7E1,3E1,2.48E2,6.25E0,3E0,4.25E0,3E0,7.75E0,2.595E2,6.225E1,5.5E0,3E0,5.5E0,1.025E1,3E0,9.725E1,7.25E0,6.5E0,1.75E1,5.9E1,5.45E1,5.55E1,4.45E1,2.7975E2,6.75E0,6.25E0,3E0,6.75E0,4.1E1,2.875E1,1.275E1,3.575E1,3.25E0,5.25E0,5E0,2.875E1,5.75E0,3E0,3.25E0,1.115E2,4E0,3E0,7.25E0,2.125E1,4.35E1,6.075E1,6.75E0,4.8025E2,2.59E2,2.05E2,3.275E1,1.375E1,4.675E1,2.025E1,2.5625E2,4.5E0,3.5E0,1.95E1,1.725E1,4.75E0,3.5E0,3E0,1.4E1,1.25E1,1.75E1,1.35E1,2.345E2,3.5E0,4.25E0,3.5E0,2.56E2,3.75E0,5.85E1,1.625E1,8.1E1,3.5E0,3.75E0,3E0,3.5E0,1.275E1,4.625E1,2.45E1,3E1,7.75E0,4.775E1,2.95E1,1.5E1,2.7625E2,3.5E0,3.75E0,3E0,3.75E0,3E0,3.75E0,3.725E1,5.25E0,2.35E1,9.25E0,3.5E0,5.25E0,3.05E1,4.5E0,2.425E1,3.25E0,1.0825E2,1.675E1,4.5E0,2.35E1,2E1,1.125E1,4.95E1,3.5E0,3.25E0,2.4775E2,2.325E2,2.975E1,2.2925E2,6.775E1,1.3725E2,4.5E0,2.825E1,6E0,7.75E0,2.95E1,1.725E1,5E0,1.525E1,5.05E1,2.0575E2,3.75E0,1.575E1,6E0,1.125E1,3E0,1.1E1,9E0,3.5E0,1.325E1,4.25E0,1.05E1,3E0,8.25E0,2.2625E2,3.75E0,2.5225E2,5.4E1,4.5E0,4E0,1.225E1,7.725E1,3.75E0,7.75E0,5E0,3.925E1,7E0,2.1E1,3.5E0,9E0,2.1E1,3E0,4.75E0,4.425E1,3.5E0,1.725E1,1.225E1,3E0,1.2E1,2.7175E2,4.5E0,3.4E1,3.25E0,5.5E0,1.8E1,3E0,6.25E0,2.625E1,4.25E0,3E0,2.125E1,1.0025E2,8E0,6.25E0,1.725E1,1.7E1,3E0,5.75E0,5.5E0,4.75E0,4.475E1,1.0025E2,1.475E2,7.65E1,1.56E2,1.225E1,1.75E1,8.75E0,2.205E2,1.8E1,4.975E1,1.425E1,1.23E2,3E0,2.525E1,3E0,3E0,2.65E1,3E0,9.25E0,8E0,1.225E1,3E0,4.75E0,4.575E1,5.5E0,2.0025E2,3E0,3E0,7.75E0,3.5E0,5.5E0,3.5E0,3E0,1.025E1,3E0,7.5E0,3.5E0,4.75E0,1.325E1,2.13E2,4E0,2.4825E2,5.1E1,3E0,4E0,8.25E0,9E0,6.825E1,3.575E1,3.5E0,4E0,3E0,3.25E0,1.775E1,9.75E0,1.125E1,4.05E1,3.75E0,4.5E0,1.275E1,3.25E0,9E0,3E0,2.6875E2,1.425E1,3.75E0,2.25E1,3.75E0,1.825E1,3E0,9.7E1,3.25E0,4.25E0,3.75E0,3E0,3.25E0,3.25E0,1.4E1,4.75E0,1.225E1,9.325E1,7E0,1.0725E2,4.025E1,4.35E1,3.3E1,8.7E1,6.9E1,7.25E0,5E0,1.25E1,5E0,3E0,5.75E0,1.15E1,2.09E2,8.75E0,9.25E0,1.6E1,3.375E1,4.75E0,9.5E0,1.18E2,5E0,2.025E1,5E0,3.5E0,2.3E1,5E0,4.25E0,4E0,4E0,8.75E0,3.5E0,2.875E1,1.7E1,9E0,1.9125E2,7E0,6.25E0,6.5E0,2.065E2,3.5E0,2.4475E2],"tree_param":{"num_deleted":"0","num_feature":"3072","num_nodes":"413","size_leaf_vector":"1"}},{"base_weights":[-5.10975E-3,-7.224701E-1,2.8677082E-1,-1.9433923E-1,-1.0441414E0,3.1437956E-2,9.665765E-1,3.3512777E-1,-5.4184103E-1,-1.300378E0,-5.491416E-1,-1.0015433E0,1.1612061E-1,-2.5724873E-1,1.1213993E0,7.182721E-1,-3.4904316E-1,8.206996E-1,-6.426735E-1,2.8805E-1,-1.3633246E0,-8.47292E-1,2.7846044E-1,1.4394571E-1,-1.1002872E0,2.6845098E-1,-3.409272E-1,-7.128978E-1,2.5224546E-1,-5.948257E-1,1.207003E0,1.125674E0,7.886333E-2,-7.2762793E-1,3.8011613E-1,5.7255782E-2,-5.6481897E-3,-7.3704934E-1,9.161145E-1,8.883444E-1,-3.334143E-2,-1.3942164E0,2.3616029E-2,-9.5672745E-1,3.8484767E-1,-5.5087745E-1,6.7216533E-1,-2.7212325E-2,3.3265363E-2,-1.206029E0,-1.36016E-1,-1.4806177E-1,5.2895343E-1,-1.4041411E-2,-7.867254E-1,-9.7037506E-1,1.9390134E-2,-3.667706E-2,4.8896134E-1,-1.0080501E0,4.993231E-1,-5.4378283E-1,1.2693135E0,1.2806679E0,-1.8735034E-2,5.154731E-1,-6.0573006E-1,1.3238145E-1,-1.0990846E0,-1.78816E-2,7.6249516E-1,-2.464125E-1,-1.0032133E0,8.5268915E-3,5.3106207E-2,9.012325E-3,5.1242497E-2,-1.4679298E0,-3.6892205E-1,-8.062778E-3,-1.0585476E0,-2.4956714E-2,4.2957187E-2,-8.777894E-1,1.1808082E-2,-3.9604107E-1,9.639147E-1,-2.9998145E-1,-1.2958486E0,4.1363376E-1,-3.565306E-2,7.332411E-1,-2.8020206E-1,2.883074E-1,9.611683E-1,-6.50993E-1,2.830176E-1,-1.0550689E0,4.2012015E-1,5.10904E-3,-1.1498389E0,-2.2716241E-2,7.697683E-1,1.0026547E-2,-6.758162E-2,3.8717162E-2,-3.92575E-3,-9.1238594E-1,2.8374357E-2,3.2874733E-2,1.350347E0,1.3871232E0,-6.627116E-4,-2.7659163E-2,8.4568936E-1,-9.537602E-1,2.075569E-2,6.164451E-1,-3.104799E-2,-7.5398884E-3,-6.45547E-2,5.365162E-2,-9.445504E-3,5.2041954E-1,-5.524537E-1,-1.0848377E0,1.5655655E-2,-8.921786E-1,-1.5718492E0,4.062795E-1,-7.308577E-1,-3.2277316E-2,5.6887174E-1,-1.1181768E0,1.745709E-2,-5.9175002E-3,-5.198672E-2,-3.988527E-2,1.47204315E-2,-8.889956E-3,1.1123194E0,-7.070873E-1,2.376042E-2,-2.5335397E-3,-1.337537E0,4.0730756E-2,-1.1538944E-2,-3.5992727E-1,9.6674645E-1,-6.501205E-1,1.1042375E-1,5.2289075E-1,-2.0507652E-1,-2.715083E-1,1.0779935E0,-8.4140027E-1,6.2990737E-1,-2.3034038E-1,5.4631096E-1,-3.1875566E-1,-1.2207872E0,-3.985941E-2,7.333442E-1,-1.2958375E0,-2.943856E-3,1.0315759E0,-2.0151928E-2,5.0648185E-3,-5.9357323E-2,6.8282354E-1,-5.724744E-1,-1.4664143E-1,1.4158355E0,1.4859632E0,9.5701E-3,1.1378896E0,-1.7401382E-2,-2.9136853E-3,-5.8374163E-2,-2.4669887E-3,4.4209994E-2,8.554559E-1,-1.9243548E-2,-1.0397817E0,3.7367173E-2,-1.2056056E0,-8.131089E-2,1.1874878E-1,-1.0678319E0,-1.4632316E-3,-1.5954655E0,4.428512E-2,-2.0332642E-2,-9.636179E-1,9.610221E-3,4.6144363E-2,-8.645649E-3,-1.2258091E0,-2.771292E-1,-3.042057E-3,1.2607048E0,-2.487202E-3,-4.5552634E-2,-1.0866779E-2,-1.3699108E0,1.9565055E-2,-4.3740124E-2,1.2038789E0,-3.7713796E-3,1.5648887E-1,-8.3176917E-1,-1.141855E0,2.4691868E-1,-3.8721162E-1,6.597355E-1,2.6387212E-1,-4.8198995E-1,2.5092608E-1,-5.1961493E-2,-4.9144682E-1,1.1464658E0,2.2048467E-1,-1.0639553E0,-3.056187E-3,4.5284696E-2,4.424413E-1,-6.673972E-1,-7.3370814E-1,6.828919E-1,-6.155901E-1,2.8752757E-2,-1.292022E0,1.0341882E-2,-1.7586974E-2,1.0440502E0,-9.575397E-3,-7.057189E-2,4.6932567E-3,6.3916266E-2,-1.5061011E-2,9.637245E-1,-9.224095E-1,2.1789962E-2,-5.648135E-1,4.1089248E-2,-3.2692358E-1,1.4549884E0,7.9715006E-2,2.0079566E-2,6.836172E-2,2.7557106E-3,5.601387E-2,-8.8295E-3,5.8667404E-3,-1.2563534E0,-7.621901E-1,5.050065E-1,3.3281136E-3,-1.2551697E0,3.431909E-2,-7.090469E-1,-3.0595062E-2,3.4929708E-2,9.073188E-3,-1.179685E0,-1.6220522E0,-8.120209E-3,-5.560503E-2,-7.7017057E-3,-1.2863913E0,-1.5679383E-1,-7.831866E-1,3.1601802E-1,7.076983E-2,1.093078E-2,-1.4350398E0,-4.2523652E-1,1.3177725E0,-3.385183E-4,-2.851807E-2,3.6340024E-2,8.8776326E-1,-1.6402051E-1,-1.1932818E0,-4.330462E-1,-3.1937498E-3,-6.6458695E-2,-2.7048472E-1,5.034742E-1,6.755602E-1,-8.008967E-1,-5.2872616E-1,7.569324E-1,-6.587044E-1,5.117926E-1,-6.741169E-1,3.3011255E-1,6.4028436E-1,-2.7943367E-2,1.4673002E-2,-4.4661462E-2,-3.4570798E-1,1.2112535E0,-2.273835E-2,3.5936553E-2,-1.2471366E0,1.1146069E-2,-3.300906E-2,7.48423E-1,-6.840741E-2,-1.0952526E0,-4.508297E-2,-5.962131E-3,9.351145E-1,-1.0047581E-2,-9.226067E-1,1.4213023E-2,-1.3535979E0,5.744547E-3,-9.463268E-4,6.306638E-2,5.541775E-3,5.7360332E-2,-7.563674E-3,-5.9283283E-2,1.1542454E-2,-9.599659E-1,-3.920617E-2,2.2189122E-2,-3.4829152E-1,1.485111E0,-6.959219E-2,-1.0792708E-2,-2.3260599E-3,-4.8572175E-2,4.3065052E-2,-1.131054E-2,-6.506004E-2,3.1009195E-3,-2.9366012E-3,-4.5282807E-2,-6.5868765E-2,-5.9970976E-3,-8.233901E-2,-4.4059874E-3,-3.7589308E-2,-7.441404E-2,-3.245129E-2,2.1519478E-2,-4.5495458E-2,-8.310473E-3,4.0855344E-2,-1.9713646E-2,-7.495069E-2,-1.7691894E-2,8.583343E-3,-3.8467593E-2,7.232468E-2,5.3236415E-3,5.1211514E-2,9.00298E-3,-3.303916E-2,2.4414424E-2,-6.431503E-2,2.3720937E-3,1.8088331E-2,-3.0453984E-2,-4.848641E-2,7.4816975E-3,-3.441156E-2,2.9966015E-2,-3.267747E-3,4.727528E-2,-3.1146856E-3,-5.7837367E-2,2.4849718E-2,-4.6477158E-2,-3.087896E-2,4.0860515E-2,8.638431E-3,-5.063205E-2,-2.741345E-3,4.7495615E-2,1.0480169E-2,-4.1901164E-2,-3.2984875E-2,3.9360594E-2,-8.560377E-3,4.8600845E-2,-3.891637E-2,1.3108589E-2,-6.281838E-3,6.428971E-2,-6.726204E-2,3.2336232E-3,5.141602E-2,-1.3952359E-2,2.3548672E-2,-3.2895476E-2,3.0493436E-3,-6.6046E-2,-2.9444262E-2,5.2712023E-2,-2.3681361E-2,3.5866898E-2,2.0722071E-4,-6.290967E-2,-7.117378E-2,-1.3385574E-2,-5.5232614E-2,-9.035548E-3,8.9620985E-3,-3.323182E-2,-6.044445E-3,7.611523E-2],"categories":[],"categories_nodes":[],"categories_segments":[],"categories_sizes":[],"default_left":[0,0,0,0,0,0,0,0,0,0,0,0,0,0,0,0,0,0,0,0,0,0,0,0,0,0,0,0,0,0,0,0,0,0,0,0,0,0,0,0,0,0,0,0,0,0,0,0,0,0,0,0,0,0,0,0,0,0,0,0,0,0,0,0,0,0,0,0,0,0,0,0,0,0,0,0,0,0,0,0,0,0,0,0,0,0,0,0,0,0,0,0,0,0,0,0,0,0,0,0,0,0,0,0,0,0,0,0,0,0,0,0,0,0,0,0,0,0,0,0,0,0,0,0,0,0,0,0,0,0,0,0,0,0,0,0,0,0,0,0,0,0,0,0,0,0,0,0,0,0,0,0,0,0,0,0,0,0,0,0,0,0,0,0,0,0,0,0,0,0,0,0,0,0,0,0,0,0,0,0,0,0,0,0,0,0,0,0,0,0,0,0,0,0,0,0,0,0,0,0,0,0,0,0,0,0,0,0,0,0,0,0,0,0,0,0,0,0,0,0,0,0,0,0,0,0,0,0,0,0,0,0,0,0,0,0,0,0,0,0,0,0,0,0,0,0,0,0,0,0,0,0,0,0,0,0,0,0,0,0,0,0,0,0,0,0,0,0,0,0,0,0,0,0,0,0,0,0,0,0,0,0,0,0,0,0,0,0,0,0,0,0,0,0,0,0,0,0,0,0,0,0,0,0,0,0,0,0,0,0,0,0,0,0,0,0,0,0,0,0,0,0,0,0,0,0,0,0,0,0,0,0,0,0,0,0,0,0,0,0,0,0,0,0,0,0,0,0,0,0,0,0,0,0,0,0,0,0,0,0,0,0,0,0,0,0,0,0,0,0,0,0,0,0,0,0,0,0,0,0,0,0,0,0,0,0,0,0,0,0,0,0,0,0,0,0,0,0,0,0,0,0,0,0,0,0,0,0,0,0,0,0,0,0,0],"id":1,"left_children":[1,3,5,7,9,11,13,15,17,19,21,23,25,27,29,31,33,35,37,39,41,43,45,47,49,51,53,55,57,59,61,63,65,67,69,-1,-1,71,73,75,-1,77,-1,79,81,83,85,-1,-1,87,89,91,93,95,97,99,-1,-1,101,103,105,107,109,111,-1,113,115,117,119,-1,121,123,125,-1,-1,-1,-1,127,129,131,133,-1,-1,135,-1,137,139,141,143,145,-1,147,149,151,153,155,157,159,161,-1,163,-1,165,-1,-1,-1,-1,167,-1,169,171,173,-1,-1,175,177,-1,179,-1,-1,-1,-1,-1,181,183,185,-1,187,189,191,193,-1,195,197,-1,-1,-1,-1,-1,-1,199,201,-1,-1,203,-1,-1,205,207,209,211,213,215,217,219,221,223,225,227,229,231,-1,233,235,-1,237,-1,-1,-1,239,241,243,245,247,-1,249,-1,-1,-1,-1,-1,251,-1,253,255,257,259,261,263,-1,265,-1,-1,267,-1,-1,-1,269,271,-1,273,-1,-1,-1,275,-1,-1,277,279,281,283,285,287,289,291,293,295,297,-1,299,301,303,305,-1,-1,307,309,311,313,315,-1,317,-1,-1,319,-1,-1,-1,-1,-1,321,323,-1,325,-1,327,329,-1,-1,-1,-1,-1,-1,-1,331,333,335,-1,337,-1,339,-1,-1,-1,341,343,-1,-1,-1,345,347,349,351,-1,-1,353,355,357,-1,-1,-1,359,361,363,365,-1,-1,367,369,371,373,375,377,379,381,383,385,387,-1,-1,-1,389,391,-1,-1,393,-1,-1,395,397,399,-1,-1,401,403,405,-1,407,-1,-1,-1,-1,-1,-1,-1,-1,409,-1,-1,411,413,-1,-1,-1,-1,-1,-1,-1,-1,-1,-1,-1,-1,-1,-1,-1,-1,-1,-1,-1,-1,-1,-1,-1,-1,-1,-1,-1,-1,-1,-1,-1,-1,-1,-1,-1,-1,-1,-1,-1,-1,-1,-1,-1,-1,-1,-1,-1,-1,-1,-1,-1,-1,-1,-1,-1,-1,-1,-1,-1,-1,-1,-1,-1,-1,-1,-1,-1,-1,-1,-1,-1,-1,-1,-1,-1,-1,-1,-1,-1,-1,-1,-1,-1,-1],"loss_changes":[6.738751E2,1.5710883E2,3.9693243E2,6.686183E1,6.96535E1,1.4650812E2,1.1976282E2,3.929776E1,3.2633423E1,3.9632385E1,5.1903202E1,1.5147224E1,1.0811335E2,1.812336E1,8.516681E1,2.4216629E1,1.6693695E1,5.868641E0,3.3694664E1,1.3559534E1,2.3891357E1,2.2385147E1,2.0856693E1,7.0107384E0,1.1152512E1,1.2653082E2,5.659358E1,1.335199E1,1.0828895E1,1.5958379E1,6.1328674E1,1.5758743E1,1.418067E1,1.2938484E1,7.6372952E0,0E0,0E0,2.4502869E1,6.178074E-1,3.8086414E-1,0E0,2.438733E1,0E0,1.3612305E1,8.849951E0,6.564423E0,1.491123E1,0E0,0E0,6.616104E0,6.942623E0,5.3575768E1,7.3118835E1,4.4321205E1,5.5445892E1,7.175915E0,0E0,0E0,1.0813734E1,1.1003904E1,2.130534E0,1.149118E1,5.1257507E1,7.4200287E0,0E0,1.2389389E1,8.6374855E0,7.745808E0,3.9849129E0,0E0,5.8128185E0,1.926079E1,1.5252579E1,0E0,0E0,0E0,0E0,1.2899048E1,1.010509E1,8.728673E0,1.2664841E1,0E0,0E0,1.3820238E0,0E0,4.6393156E0,6.788162E0,6.727114E0,4.5504456E0,4.039127E0,0E0,1.7110928E1,5.7582916E1,5.4617783E1,3.804782E1,2.0811762E1,2.2242678E1,1.4635788E1,1.5686704E1,0E0,4.3539124E0,0E0,1.0746296E1,0E0,0E0,0E0,0E0,5.6807394E0,0E0,1.640467E1,4.8298706E1,4.393074E0,0E0,0E0,1.0258741E1,2.624673E0,0E0,2.401084E0,0E0,0E0,0E0,0E0,0E0,8.997903E0,1.6494118E1,1.4041611E1,0E0,1.1722458E1,9.797058E0,6.864637E0,5.8099957E0,0E0,4.079201E0,9.492798E0,0E0,0E0,0E0,0E0,0E0,0E0,5.776348E0,1.4487457E0,0E0,0E0,1.8093414E0,0E0,0E0,7.2202997E0,1.1754196E1,3.0559006E1,3.5064095E1,4.0894707E1,2.0655685E1,1.1726608E1,2.7862244E1,1.6999763E1,2.6583028E0,1.8450682E1,2.124291E1,1.0189E1,1.2437241E1,0E0,1.1690322E1,1.9655304E0,0E0,5.06456E0,0E0,0E0,0E0,6.9774647E0,9.678984E0,1.2338134E1,3.392566E1,2.05085E0,0E0,4.6489563E0,0E0,0E0,0E0,0E0,0E0,6.248356E0,0E0,8.562073E0,1.3322088E1,7.1432953E0,1.1224067E1,7.959968E0,8.5744095E0,0E0,9.011536E0,0E0,0E0,1.4257107E0,0E0,0E0,0E0,5.995117E0,7.3869762E0,0E0,2.923153E0,0E0,0E0,0E0,2.3288574E0,0E0,0E0,5.6953316E0,8.279145E0,1.0508214E1,2.1545364E1,3.6625233E0,2.4793606E1,2.237072E1,3.415731E1,1.5516157E1,1.6512287E1,7.9347005E0,0E0,5.4868665E0,2.3827667E1,6.9317427E0,1.4643902E1,0E0,0E0,1.1154604E1,9.104513E0,7.775979E-1,1.742574E1,8.559533E0,0E0,9.844513E0,0E0,0E0,5.658304E0,0E0,0E0,0E0,0E0,0E0,1.9843006E0,2.7045355E0,0E0,7.471492E0,0E0,6.758087E0,2.7198364E1,0E0,0E0,0E0,0E0,0E0,0E0,0E0,2.2660751E0,1.757062E0,6.768539E0,0E0,6.6434326E0,0E0,1.3316126E0,0E0,0E0,0E0,6.499161E0,9.348877E0,0E0,0E0,0E0,5.376648E0,4.718739E0,2.205472E-1,6.235753E0,0E0,0E0,2.8605804E0,3.2783027E0,5.0742874E0,0E0,0E0,0E0,3.8124657E-1,1.2381961E1,1.0108902E1,1.3337133E1,0E0,0E0,1.9369844E1,1.6132374E1,3.3580441E0,8.703384E0,1.2172409E1,2.401416E1,5.287267E0,1.2790455E1,1.2677437E1,1.2658535E1,5.0026855E0,0E0,0E0,0E0,4.5033875E0,2.2389618E1,0E0,0E0,6.866661E0,0E0,0E0,7.903096E0,8.145358E0,5.9455433E0,0E0,0E0,1.634866E1,1.2314428E1,6.476185E0,0E0,5.732849E0,0E0,0E0,0E0,0E0,0E0,0E0,0E0,0E0,6.358967E-1,0E0,0E0,2.51389E0,2.7597168E1,0E0,0E0,0E0,0E0,0E0,0E0,0E0,0E0,0E0,0E0,0E0,0E0,0E0,0E0,0E0,0E0,0E0,0E0,0E0,0E0,0E0,0E0,0E0,0E0,0E0,0E0,0E0,0E0,0E0,0E0,0E0,0E0,0E0,0E0,0E0,0E0,0E0,0E0,0E0,0E0,0E0,0E0,0E0,0E0,0E0,0E0,0E0,0E0,0E0,0E0,0E0,0E0,0E0,0E0,0E0,0E0,0E0,0E0,0E0,0E0,0E0,0E0,0E0,0E0,0E0,0E0,0E0,0E0,0E0,0E0,0E0,0E0,0E0,0E0,0E0,0E0,0E0,0E0,0E0,0E0,0E0,0E0,0E0,0E0],"parents":[2147483647,0,0,1,1,2,2,3,3,4,4,5,5,6,6,7,7,8,8,9,9,10,10,11,11,12,12,13,13,14,14,15,15,16,16,17,17,18,18,19,19,20,20,21,21,22,22,23,23,24,24,25,25,26,26,27,27,28,28,29,29,30,30,31,31,32,32,33,33,34,34,37,37,38,38,39,39,41,41,43,43,44,44,45,45,46,46,49,49,50,50,51,51,52,52,53,53,54,54,55,55,58,58,59,59,60,60,61,61,62,62,63,63,65,65,66,66,67,67,68,68,70,70,71,71,72,72,77,77,78,78,79,79,80,80,83,83,85,85,86,86,87,87,88,88,89,89,91,91,92,92,93,93,94,94,95,95,96,96,97,97,98,98,100,100,102,102,107,107,109,109,110,110,111,111,114,114,115,115,117,117,123,123,124,124,125,125,127,127,128,128,129,129,130,130,132,132,133,133,140,140,141,141,144,144,147,147,148,148,149,149,150,150,151,151,152,152,153,153,154,154,155,155,156,156,157,157,158,158,159,159,160,160,162,162,163,163,165,165,169,169,170,170,171,171,172,172,173,173,175,175,181,181,183,183,184,184,185,185,186,186,187,187,188,188,190,190,193,193,197,197,198,198,200,200,204,204,207,207,208,208,209,209,210,210,211,211,212,212,213,213,214,214,215,215,216,216,217,217,219,219,220,220,221,221,222,222,225,225,226,226,227,227,228,228,229,229,231,231,234,234,240,240,241,241,243,243,245,245,246,246,254,254,255,255,256,256,258,258,260,260,264,264,265,265,269,269,270,270,271,271,272,272,275,275,276,276,277,277,281,281,282,282,283,283,284,284,287,287,288,288,289,289,290,290,291,291,292,292,293,293,294,294,295,295,296,296,297,297,301,301,302,302,305,305,308,308,309,309,310,310,313,313,314,314,315,315,317,317,326,326,329,329,330,330],"right_children":[2,4,6,8,10,12,14,16,18,20,22,24,26,28,30,32,34,36,38,40,42,44,46,48,50,52,54,56,58,60,62,64,66,68,70,-1,-1,72,74,76,-1,78,-1,80,82,84,86,-1,-1,88,90,92,94,96,98,100,-1,-1,102,104,106,108,110,112,-1,114,116,118,120,-1,122,124,126,-1,-1,-1,-1,128,130,132,134,-1,-1,136,-1,138,140,142,144,146,-1,148,150,152,154,156,158,160,162,-1,164,-1,166,-1,-1,-1,-1,168,-1,170,172,174,-1,-1,176,178,-1,180,-1,-1,-1,-1,-1,182,184,186,-1,188,190,192,194,-1,196,198,-1,-1,-1,-1,-1,-1,200,202,-1,-1,204,-1,-1,206,208,210,212,214,216,218,220,222,224,226,228,230,232,-1,234,236,-1,238,-1,-1,-1,240,242,244,246,248,-1,250,-1,-1,-1,-1,-1,252,-1,254,256,258,260,262,264,-1,266,-1,-1,268,-1,-1,-1,270,272,-1,274,-1,-1,-1,276,-1,-1,278,280,282,284,286,288,290,292,294,296,298,-1,300,302,304,306,-1,-1,308,310,312,314,316,-1,318,-1,-1,320,-1,-1,-1,-1,-1,322,324,-1,326,-1,328,330,-1,-1,-1,-1,-1,-1,-1,332,334,336,-1,338,-1,340,-1,-1,-1,342,344,-1,-1,-1,346,348,350,352,-1,-1,354,356,358,-1,-1,-1,360,362,364,366,-1,-1,368,370,372,374,376,378,380,382,384,386,388,-1,-1,-1,390,392,-1,-1,394,-1,-1,396,398,400,-1,-1,402,404,406,-1,408,-1,-1,-1,-1,-1,-1,-1,-1,410,-1,-1,412,414,-1,-1,-1,-1,-1,-1,-1,-1,-1,-1,-1,-1,-1,-1,-1,-1,-1,-1,-1,-1,-1,-1,-1,-1,-1,-1,-1,-1,-1,-1,-1,-1,-1,-1,-1,-1,-1,-1,-1,-1,-1,-1,-1,-1,-1,-1,-1,-1,-1,-1,-1,-1,-1,-1,-1,-1,-1,-1,-1,-1,-1,-1,-1,-1,-1,-1,-1,-1,-1,-1,-1,-1,-1,-1,-1,-1,-1,-1,-1,-1,-1,-1,-1,-1],"split_conditions":[2.0392157E-1,3.019608E-1,6.5882355E-1,2.7450982E-1,2.5490198E-1,6.27451E-2,2.2745098E-1,3.5686275E-1,7.450981E-2,3.9215688E-2,2.0392157E-1,1.1372549E-1,6.4705884E-1,3.5686275E-1,1.6470589E-1,2.2745098E-1,2.3529412E-1,1.764706E-1,9.137255E-1,2.9803923E-1,6.666667E-1,9.2941177E-1,3.0588236E-1,6.27451E-2,6.862745E-1,2.1960784E-1,6.0784316E-1,9.3333334E-1,8.235294E-2,9.254902E-1,3.9215688E-2,8.5882354E-1,4.4705883E-1,1.4901961E-1,3.5686275E-1,5.7255782E-2,-5.6481897E-3,3.4509805E-1,6.1960787E-1,7.8431375E-2,-3.334143E-2,3.764706E-1,2.3616029E-2,1.5686275E-1,2.2352941E-1,3.372549E-1,1.4117648E-1,-2.7212325E-2,3.3265363E-2,1.2941177E-1,5.411765E-1,1.1764706E-1,5.529412E-1,3.8039216E-1,6.156863E-1,5.882353E-1,1.9390134E-2,-3.667706E-2,2.9411766E-1,2.8627452E-1,2.4313726E-1,8.745098E-1,1.4117648E-1,2.901961E-1,-1.8735034E-2,7.8431375E-2,2.6666668E-1,7.607843E-1,1.764706E-1,-1.78816E-2,3.137255E-1,2.0784314E-1,7.9607844E-1,8.5268915E-3,5.3106207E-2,9.012325E-3,5.1242497E-2,3.2941177E-1,2.0392157E-1,8.235294E-2,9.137255E-1,-2.4956714E-2,4.2957187E-2,3.6078432E-1,1.1808082E-2,4.1960785E-1,1.6862746E-1,2.7450982E-1,1.01960786E-1,6.9803923E-1,-3.565306E-2,1.4901961E-1,1.8039216E-1,4.9411765E-1,1.1764706E-1,7.7254903E-1,3.647059E-1,4.9803922E-1,3.7254903E-1,5.10904E-3,6.3529414E-1,-2.2716241E-2,6.862745E-1,1.0026547E-2,-6.758162E-2,3.8717162E-2,-3.92575E-3,5.647059E-1,2.8374357E-2,4.0784314E-1,1.4509805E-1,3.7254903E-1,-6.627116E-4,-2.7659163E-2,6.666667E-1,9.019608E-2,2.075569E-2,6.27451E-2,-3.104799E-2,-7.5398884E-3,-6.45547E-2,5.365162E-2,-9.445504E-3,5.3333336E-1,2.3921569E-1,2E-1,1.5655655E-2,1.5294118E-1,1.3725491E-1,3.9607844E-1,6.9803923E-1,-3.2277316E-2,7.3333335E-1,2.5490198E-1,1.745709E-2,-5.9175002E-3,-5.198672E-2,-3.988527E-2,1.47204315E-2,-8.889956E-3,1.9607843E-1,1.6078432E-1,2.376042E-2,-2.5335397E-3,4.3137256E-2,4.0730756E-2,-1.1538944E-2,3.2941177E-1,5.921569E-1,1.1764706E-1,8.627451E-2,1.8431373E-1,4.4313726E-1,6.039216E-1,5.882353E-2,4.7843137E-1,2.627451E-1,3.4509805E-1,1.6862746E-1,7.3333335E-1,7.882353E-1,-3.985941E-2,3.2941177E-1,1.1372549E-1,-2.943856E-3,2.5882354E-1,-2.0151928E-2,5.0648185E-3,-5.9357323E-2,2.0784314E-1,7.5686276E-1,9.372549E-1,2.745098E-2,5.568628E-1,9.5701E-3,5.8431375E-1,-1.7401382E-2,-2.9136853E-3,-5.8374163E-2,-2.4669887E-3,4.4209994E-2,5.9607846E-1,-1.9243548E-2,7.8431375E-2,1.5294118E-1,4.3137256E-2,2.3529412E-1,5.0980393E-2,1.4901961E-1,-1.4632316E-3,5.9607846E-1,4.428512E-2,-2.0332642E-2,3.2156864E-1,9.610221E-3,4.6144363E-2,-8.645649E-3,8.5882354E-1,4.862745E-1,-3.042057E-3,5.176471E-1,-2.487202E-3,-4.5552634E-2,-1.0866779E-2,5.9607846E-1,1.9565055E-2,-4.3740124E-2,7.7254903E-1,6.784314E-1,1.8039216E-1,1.4901961E-1,2.901961E-1,1.5686275E-1,3.3333334E-1,1.254902E-1,2.0784314E-1,5.9607846E-1,4.9411765E-1,-5.1961493E-2,4.862745E-1,4.7058824E-2,3.9607844E-1,8.627451E-1,-3.056187E-3,4.5284696E-2,1.254902E-1,5.803922E-1,4.4705883E-1,5.8431375E-1,4E-1,2.8752757E-2,8.4705883E-1,1.0341882E-2,-1.7586974E-2,4.2352942E-1,-9.575397E-3,-7.057189E-2,4.6932567E-3,6.3916266E-2,-1.5061011E-2,1.882353E-1,5.019608E-1,2.1789962E-2,6.745098E-1,4.1089248E-2,6.431373E-1,5.882353E-2,7.9715006E-2,2.0079566E-2,6.836172E-2,2.7557106E-3,5.601387E-2,-8.8295E-3,5.8667404E-3,2.9803923E-1,2.784314E-1,5.3333336E-1,3.3281136E-3,8.1960785E-1,3.431909E-2,3.8039216E-1,-3.0595062E-2,3.4929708E-2,9.073188E-3,4.3137255E-1,5.686275E-1,-8.120209E-3,-5.560503E-2,-7.7017057E-3,3.9215687E-1,9.803922E-2,5.294118E-1,5.921569E-1,7.076983E-2,1.093078E-2,5.647059E-1,6.3529414E-1,2.8627452E-1,-3.385183E-4,-2.851807E-2,3.6340024E-2,3.647059E-1,1.764706E-1,7.2156864E-1,3.2941177E-1,-3.1937498E-3,-6.6458695E-2,2.2352941E-1,1.5294118E-1,1.7254902E-1,4.7843137E-1,3.0588236E-1,7.450981E-2,3.4901962E-1,3.4509805E-1,2.1568628E-1,2.8627452E-1,2.2745098E-1,-2.7943367E-2,1.4673002E-2,-4.4661462E-2,4.4705883E-1,1.01960786E-1,-2.273835E-2,3.5936553E-2,7.490196E-1,1.1146069E-2,-3.300906E-2,4.3137255E-1,4.392157E-1,3.372549E-1,-4.508297E-2,-5.962131E-3,3.9215688E-2,5.8431375E-1,3.6862746E-1,1.4213023E-2,7.176471E-1,5.744547E-3,-9.463268E-4,6.306638E-2,5.541775E-3,5.7360332E-2,-7.563674E-3,-5.9283283E-2,1.1542454E-2,5.4901963E-1,-3.920617E-2,2.2189122E-2,1.4901961E-1,3.137255E-2,-6.959219E-2,-1.0792708E-2,-2.3260599E-3,-4.8572175E-2,4.3065052E-2,-1.131054E-2,-6.506004E-2,3.1009195E-3,-2.9366012E-3,-4.5282807E-2,-6.5868765E-2,-5.9970976E-3,-8.233901E-2,-4.4059874E-3,-3.7589308E-2,-7.441404E-2,-3.245129E-2,2.1519478E-2,-4.5495458E-2,-8.310473E-3,4.0855344E-2,-1.9713646E-2,-7.495069E-2,-1.7691894E-2,8.583343E-3,-3.8467593E-2,7.232468E-2,5.3236415E-3,5.1211514E-2,9.00298E-3,-3.303916E-2,2.4414424E-2,-6.431503E-2,2.3720937E-3,1.8088331E-2,-3.0453984E-2,-4.848641E-2,7.4816975E-3,-3.441156E-2,2.9966015E-2,-3.267747E-3,4.727528E-2,-3.1146856E-3,-5.7837367E-2,2.4849718E-2,-4.6477158E-2,-3.087896E-2,4.0860515E-2,8.638431E-3,-5.063205E-2,-2.741345E-3,4.7495615E-2,1.0480169E-2,-4.1901164E-2,-3.2984875E-2,3.9360594E-2,-8.560377E-3,4.8600845E-2,-3.891637E-2,1.3108589E-2,-6.281838E-3,6.428971E-2,-6.726204E-2,3.2336232E-3,5.141602E-2,-1.3952359E-2,2.3548672E-2,-3.2895476E-2,3.0493436E-3,-6.6046E-2,-2.9444262E-2,5.2712023E-2,-2.3681361E-2,3.5866898E-2,2.0722071E-4,-6.290967E-2,-7.117378E-2,-1.3385574E-2,-5.5232614E-2,-9.035548E-3,8.9620985E-3,-3.323182E-2,-6.044445E-3,7.611523E-2],"split_indices":[2976,2408,98,2387,0,1971,1536,1541,496,16,2985,2938,783,1567,2305,1919,3064,2693,93,1633,98,27,2986,3045,3055,0,2172,141,2530,72,1861,806,1807,2710,605,0,0,2657,552,1542,0,3063,0,2570,1314,2786,1857,0,0,1369,1119,251,2977,1825,3059,96,0,0,1282,2904,2039,865,1725,1727,0,1905,2396,1649,2530,0,3042,1829,104,0,0,0,0,2636,2391,2838,1034,0,0,1170,0,658,527,1552,2858,2845,0,2161,189,1641,2100,217,3070,2433,1086,0,1713,0,2454,0,0,0,0,398,0,2745,2687,1534,0,0,430,2694,0,2613,0,0,0,0,0,2086,3046,2880,0,136,2404,1720,1406,0,495,2895,0,0,0,0,0,0,2083,1315,0,0,2138,0,0,2310,1625,293,2269,1209,558,2685,1176,793,2232,2637,1111,2490,190,0,1748,1796,0,663,0,0,0,1109,3041,384,2140,115,0,1113,0,0,0,0,0,83,0,2911,96,2879,1827,144,1030,0,106,0,0,2994,0,0,0,363,332,0,1404,0,0,0,197,0,0,1470,2870,1546,204,2811,867,2996,2083,2254,311,688,0,1906,2331,1567,336,0,0,2052,1838,1516,2451,2434,0,1853,0,0,1136,0,0,0,0,0,1786,993,0,504,0,890,1199,0,0,0,0,0,0,0,2734,1247,602,0,192,0,2767,0,0,0,3070,2952,0,0,0,582,2787,1556,1447,0,0,11,104,28,0,0,0,2103,1050,614,3014,0,0,1002,2591,1128,2627,2855,1704,1312,927,185,1009,1324,0,0,0,916,1592,0,0,2959,0,0,2359,2271,2904,0,0,2544,2438,2655,0,2590,0,0,0,0,0,0,0,0,2005,0,0,1490,2061,0,0,0,0,0,0,0,0,0,0,0,0,0,0,0,0,0,0,0,0,0,0,0,0,0,0,0,0,0,0,0,0,0,0,0,0,0,0,0,0,0,0,0,0,0,0,0,0,0,0,0,0,0,0,0,0,0,0,0,0,0,0,0,0,0,0,0,0,0,0,0,0,0,0,0,0,0,0,0,0,0,0,0,0],"split_type":[0,0,0,0,0,0,0,0,0,0,0,0,0,0,0,0,0,0,0,0,0,0,0,0,0,0,0,0,0,0,0,0,0,0,0,0,0,0,0,0,0,0,0,0,0,0,0,0,0,0,0,0,0,0,0,0,0,0,0,0,0,0,0,0,0,0,0,0,0,0,0,0,0,0,0,0,0,0,0,0,0,0,0,0,0,0,0,0,0,0,0,0,0,0,0,0,0,0,0,0,0,0,0,0,0,0,0,0,0,0,0,0,0,0,0,0,0,0,0,0,0,0,0,0,0,0,0,0,0,0,0,0,0,0,0,0,0,0,0,0,0,0,0,0,0,0,0,0,0,0,0,0,0,0,0,0,0,0,0,0,0,0,0,0,0,0,0,0,0,0,0,0,0,0,0,0,0,0,0,0,0,0,0,0,0,0,0,0,0,0,0,0,0,0,0,0,0,0,0,0,0,0,0,0,0,0,0,0,0,0,0,0,0,0,0,0,0,0,0,0,0,0,0,0,0,0,0,0,0,0,0,0,0,0,0,0,0,0,0,0,0,0,0,0,0,0,0,0,0,0,0,0,0,0,0,0,0,0,0,0,0,0,0,0,0,0,0,0,0,0,0,0,0,0,0,0,0,0,0,0,0,0,0,0,0,0,0,0,0,0,0,0,0,0,0,0,0,0,0,0,0,0,0,0,0,0,0,0,0,0,0,0,0,0,0,0,0,0,0,0,0,0,0,0,0,0,0,0,0,0,0,0,0,0,0,0,0,0,0,0,0,0,0,0,0,0,0,0,0,0,0,0,0,0,0,0,0,0,0,0,0,0,0,0,0,0,0,0,0,0,0,0,0,0,0,0,0,0,0,0,0,0,0,0,0,0,0,0,0,0,0,0,0,0,0,0,0,0,0,0,0,0,0,0,0,0,0,0,0,0,0,0,0,0,0],"sum_hessian":[3.2084292E3,9.257702E2,2.282659E3,3.5346313E2,5.7230707E2,1.6631981E3,6.1946075E2,1.4013148E2,2.1333163E2,3.7174054E2,2.0056653E2,1.2191476E2,1.5412834E3,6.9194244E1,5.502665E2,8.9667404E1,5.0464085E1,1.2239814E1,2.0109183E2,1.3488337E1,3.582522E2,1.4735994E2,5.320659E1,9.493665E0,1.124211E2,1.1575459E3,3.8373755E2,3.547354E1,3.37207E1,2.4729713E1,5.255368E2,5.244769E1,3.721972E1,3.3224297E1,1.723979E1,8.243203E0,3.9966102E0,1.9209724E2,8.994582E0,8.495771E0,4.992565E0,3.535055E2,4.746705E0,1.3636589E2,1.0994045E1,1.6484976E1,3.6721615E1,3.997513E0,5.4961514E0,1.0018162E2,1.2239479E1,4.4623184E2,7.11314E2,2.2437206E2,1.5936548E2,2.9228403E1,6.2451367E0,4.497414E0,2.9223288E1,1.8236013E1,6.4937E0,1.6733305E1,5.088035E2,4.8200573E1,4.247114E0,2.3480112E1,1.3739609E1,1.0992396E1,2.22319E1,5.9956317E0,1.1244159E1,7.0946335E1,1.2115091E2,3.2481806E0,5.7464013E0,3.2482452E0,5.2475257E0,3.2778113E2,2.5724365E1,1.3740522E1,1.22625374E2,3.7475696E0,7.2464757E0,1.1239785E1,5.2451906E0,7.4943986E0,2.9227215E1,1.0992703E1,8.918891E1,6.99372E0,5.2457585E0,5.521741E1,3.9101443E2,4.6226953E2,2.4904448E2,6.94661E1,1.5490596E2,1.3089062E2,2.8474855E1,4.4982176E0,2.4730186E1,5.9950614E0,2.3228226E1,4.497482E0,1.3738531E1,3.2476454E0,3.2460544E0,1.3237378E1,3.4959264E0,3.1727217E1,4.7707626E2,4.4203644E1,3.9969301E0,4.7457356E0,1.8734375E1,1.0491406E1,3.2482023E0,7.24541E0,3.746986E0,5.2466784E0,1.698522E1,7.995306E0,3.248853E0,1.9238628E1,5.170771E1,1.1490503E2,6.2458773E0,5.744449E1,2.7033664E2,7.992742E0,1.7731623E1,6.245232E0,7.49529E0,1.18628624E2,3.9967463E0,3.4965885E0,7.7431965E0,4.247017E0,3.2473817E0,3.2481384E0,2.5979076E1,7.49554E0,3.4971633E0,3.248158E0,8.594075E1,3.4970822E0,3.4966378E0,9.242251E0,4.597516E1,1.9912433E2,1.9189012E2,3.1310312E2,1.4916641E2,2.0986465E1,2.2805801E2,6.196981E1,7.496291E0,5.272697E1,1.02178986E2,2.6732265E1,1.04158356E2,4.246359E0,2.4228497E1,2.0983139E1,3.7470474E0,1.9481455E1,3.746771E0,3.496026E0,9.741352E0,1.4991398E1,1.6735819E1,1.9736122E1,4.5734015E2,3.9707676E1,4.495965E0,1.5238183E1,3.4961925E0,3.2475724E0,7.2438335E0,3.2479255E0,3.9974847E0,1.4242794E1,4.995833E0,2.6225235E1,2.5482475E1,1.01663635E2,1.3241397E1,8.743473E0,4.8701015E1,4.245151E0,2.660915E2,4.7461476E0,3.246595E0,1.3985375E1,3.7462473E0,4.2474704E0,3.2478197E0,1.0314176E2,1.5486863E1,3.2481923E0,2.2730885E1,3.2478225E0,4.2477174E0,3.4971938E0,8.244356E1,4.2464747E0,4.995777E0,3.5981365E1,9.993793E0,3.6727722E1,1.623966E2,1.5240229E1,1.7664989E2,3.9729496E1,2.7337363E2,5.5467884E1,9.369853E1,1.449107E1,6.4953947E0,8.242667E0,2.1981534E2,1.0745573E1,5.1224236E1,3.248482E0,4.247809E0,2.0739738E1,3.1987232E1,7.743941E0,9.443505E1,2.1236124E1,5.4961414E0,9.966047E1,4.4978843E0,5.2463293E0,1.8982168E1,3.2470734E0,1.7736065E1,5.4962664E0,1.39851885E1,3.2487607E0,1.1742638E1,1.2740019E1,3.9957988E0,1.5239486E1,4.4966373E0,9.241376E0,4.480988E2,3.3963238E1,5.74444E0,1.1490742E1,3.747441E0,1.0994231E1,3.2485638E0,4.4958E0,2.1729435E1,8.241699E0,1.7240776E1,3.7480226E0,9.791561E1,5.74653E0,7.494867E0,3.7463572E0,4.997116E0,3.746327E0,4.495469E1,2.605974E2,5.494076E0,1.0239111E1,3.7462642E0,9.664792E1,6.493839E0,7.4925013E0,7.9943614E0,1.8233135E1,4.497749E0,7.4698204E1,7.7453547E0,3.248305E1,3.4983134E0,6.246125E0,3.747667E0,8.495386E0,2.8232336E1,7.9946884E1,8.244972E1,3.2488372E0,1.1991391E1,5.8466743E1,1.1818315E2,1.0244881E1,2.9484615E1,1.8989037E1,2.5438458E2,9.993794E0,4.547409E1,7.645936E1,1.7239176E1,1.0492682E1,3.9983873E0,3.2471604E0,4.995507E0,8.244742E0,2.115706E2,4.7476344E0,5.997939E0,4.497644E1,6.2477956E0,3.2478833E0,1.7491856E1,1.574456E1,1.6242672E1,4.2463493E0,3.4975917E0,6.7953316E1,2.6481733E1,1.5739559E1,5.4965653E0,9.566309E1,3.9973783E0,3.9961977E0,1.49859705E1,3.4988942E0,8.243743E0,5.2461114E0,7.493908E0,5.746851E0,9.492635E0,5.7457967E0,3.495579E0,6.4945307E0,4.4160425E2,1.7732075E1,3.9973602E0,3.2472734E0,4.994426E0,1.0994211E1,6.246565E0,9.466799E1,3.2476199E0,3.247358E0,4.2475085E0,3.870968E1,6.24501E0,2.5610104E2,4.496358E0,3.2967766E1,6.3680157E1,3.246074E0,3.2477648E0,4.2463946E0,3.2461069E0,4.246598E0,3.7477636E0,6.870105E1,5.997155E0,3.7486374E0,3.9967172E0,2.848519E1,3.9978635E0,5.24726E0,3.248126E0,1.5990157E1,1.2242179E1,7.420031E1,5.7465696E0,1.3993197E1,6.845652E1,1.9488708E1,3.8978035E1,6.497193E0,1.1168595E2,3.7478075E0,6.4970737E0,1.1496916E1,1.79877E1,4.998285E0,1.3990751E1,8.74502E0,2.4563957E2,3.7480783E0,6.2457166E0,2.1736546E1,2.3737545E1,1.1744344E1,6.471501E1,4.7459955E0,1.2493179E1,3.7467608E0,6.7459216E0,3.9976714E0,4.247071E0,1.0992498E1,2.005781E2,4.1728344E1,3.2480962E0,1.3743731E1,3.7481248E0,8.746783E0,6.9977765E0,3.248296E0,1.2994376E1,3.4971223E0,6.445619E1,1.7239145E1,9.242588E0,5.4970994E0,1.0242459E1,8.841882E1,7.2442713E0,6.2451963E0,3.2474382E0,3.2469442E0,3.2475865E0,9.740981E0,4.3186325E2],"tree_param":{"num_deleted":"0","num_feature":"3072","num_nodes":"415","size_leaf_vector":"1"}},{"base_weights":[-1.59979E-3,-3.1084332E-1,6.111525E-1,-7.224255E-1,-3.5854414E-2,2.5980905E-1,1.1016456E0,9.346988E-1,-8.5785186E-1,1.703921E-1,-5.356886E-1,9.178478E-2,1.1998149E0,-3.8916445E-1,1.2400985E0,1.1588688E0,-6.0840005E-1,-1.1187049E0,-4.8933524E-1,-1.1410835E0,2.5732446E-1,-6.7119426E-1,4.6365103E-1,-9.172613E-1,2.2819562E-1,-5.414658E-1,1.3630815E0,-7.6167935E-1,5.740259E-1,-5.1550514E-1,1.3475689E0,1.3805954E0,-6.233101E-2,-3.9803937E-2,-2.2844672E-3,-3.9358434E-1,-1.3389466E0,-1.3697376E0,-3.7263587E-1,5.842433E-3,-1.2460979E0,5.020564E-2,6.9947284E-1,-4.0425777E-1,-1.1428132E0,-5.7972765E-1,8.171445E-1,-1.1288997E0,1.4965618E-1,-9.165402E-1,3.3606306E-1,3.1198075E-3,-4.0446542E-2,-1.5085913E-2,1.4544113E0,2.2536722E-1,-1.0799379E0,-7.372176E-3,4.3505624E-2,-9.2519933E-1,3.0755779E-2,-6.003611E-1,1.4031628E0,-4.4689397E-4,1.4997596E0,-3.3925552E-2,2.770151E-2,8.819712E-1,-6.666151E-1,-1.408538E0,-4.199456E-1,-1.4610453E0,-8.025249E-3,-4.926536E-1,3.5308516E-1,-1.3485082E0,2.3913537E-3,3.767881E-1,-2.7153897E-1,-3.9630044E-1,8.41574E-1,-5.312204E-1,7.0380825E-1,1.659371E-2,-1.2406702E0,-4.3432333E-2,9.169693E-3,-2.2130903E-2,1.0658292E0,6.0029174E-3,-1.22499E0,-2.6057718E-2,3.366686E-2,2.069443E-2,-1.0784909E0,-4.6463525E-1,4.6081313E-1,1.5292419E0,-1.3258205E-3,-1.4375122E-2,3.165021E-2,-1.2401837E0,-3.404259E-3,1.4786102E-2,-6.0782026E-2,-4.5020215E-2,8.213337E-3,9.4431944E-2,1.4653139E0,1.5781782E0,8.744777E-3,6.044792E-2,-2.0258194E-2,-2.3650989E-1,-1.1013954E0,-7.639539E-1,-1.5250121E0,-7.173018E-1,2.3326961E-2,-1.4562274E-2,-7.6832324E-2,-7.1989566E-1,-7.240452E-2,-3.6559116E-2,6.415157E-1,-1.4095166E0,-1.117221E-2,5.718071E-1,-4.3299243E-1,-3.9299074E-1,5.426951E-1,3.2109326E-1,-7.297636E-1,-1.9320957E-1,9.487872E-1,2.588299E-1,-7.3817414E-1,1.0016915E0,-1.5098276E-2,-1.3104371E0,2.1129945E-2,1.2054977E0,-4.1820076E-3,-4.1139102E-1,-1.3761989E0,-8.8885516E-2,-1.3879464E0,2.4926E-1,-8.449142E-1,-3.9391258E-1,6.019469E-1,2.065461E-3,1.5888562E0,-8.703063E-3,-6.911158E-2,-4.4596466E-1,4.3122735E-2,-2.3635432E-1,1.5035533E0,1.7262977E-2,8.212319E-2,-7.6569384E-1,3.502373E-1,2.6769682E-3,-1.2541758E0,-2.274062E-1,-1.1972317E0,-5.491581E-3,-1.5511048E0,7.7302987E-3,-9.514453E-1,-3.0284476E-1,-1.049016E0,4.559554E-1,-3.283886E-1,-1.3934888E-1,1.119057E0,-1.7113438E-2,-1.476562E0,-7.498517E-1,6.912387E-1,-6.997542E-1,3.8391364E-1,-2.877215E-2,-6.587938E-1,-2.6539901E-2,8.0265975E-1,-2.2090644E-2,4.1103996E-2,-9.990641E-1,1.5579565E-2,5.689797E-1,-7.891116E-1,-3.3766672E-1,1.0257034E0,6.637545E-1,-4.464367E-1,-1.4221346E0,-5.2565175E-1,6.0850706E-2,-2.4558927E-3,-1.3848288E0,5.486415E-3,-2.957328E-3,1.3717527E0,-4.0981147E-2,1.1958304E-2,-1.096234E-2,-1.4539247E0,-3.465059E-2,2.0359328E-2,-7.338475E-2,-1.4513194E-2,6.3716906E-1,-2.7575513E-2,-1.1823382E0,-5.5016067E-2,2.8047267E-1,-8.721828E-1,-2.8359127E-1,7.2589713E-1,7.6446882E-3,1.651364E0,-4.1317504E-2,1.8184675E-2,-3.9272975E-2,2.5338745E-2,1.0686457E-1,1.5478377E0,1.3610368E-2,-1.0100251E0,6.429298E-1,-3.5558593E-2,7.5386633E-4,-1.3730761E0,-7.071773E-1,3.3291268E-1,3.3645842E-3,-1.3787454E0,-1.5729312E0,1.4195555E-3,-6.1711885E-2,3.7519564E-3,-4.759593E-1,7.5137156E-1,5.771852E-2,-1.1972009E0,8.632262E-1,-4.8281366E-1,6.15928E-1,-5.4653996E-1,3.0917896E-2,-7.1571404E-1,2.778156E-3,1.2957234E0,-7.6944225E-2,-1.4434233E-2,1.9697128E-2,-1.0883075E0,8.2139605E-1,-2.7957425E-1,-1.020853E0,-3.5883922E-2,7.695022E-1,-2.1467825E-2,-7.107377E-1,1.9885197E-1,-8.0547875E-1,1.1950486E-1,-1.8640736E-2,1.0257496E0,-3.7280626E-3,-5.7260673E-2,4.8941474E-2,-1.3592032E-2,-5.9183825E-2,4.4559175E-3,-3.557217E-2,1.5125169E-2,-3.2032043E-1,1.0991728E0,-1.43768955E-2,9.042986E-1,-8.4377027E-1,2.0785922E-2,-7.4712284E-2,-1.4119339E-2,9.12479E-2,-7.7833074E-1,-1.457366E0,2.7737205E-3,1.3991809E-2,7.320483E-2,-7.71149E-2,-1.3836284E-2,5.155337E-2,-1.6022174E-2,-5.0499775E-3,-6.674894E-2,-3.350928E-2,5.7110983E-1,-4.1749337E-1,8.0906564E-1,-1.0724671E0,6.740988E-3,5.721458E-1,-6.061169E-1,-3.9102885E-1,8.3478606E-1,1.3776957E-2,8.475239E-2,-2.674144E-2,5.809496E-1,-1.5614492E-2,1.5702655E0,-6.1095577E-2,-1.7832706E-3,4.7742464E-2,-1.3246136E-2,-7.3086046E-2,-1.0267992E-2,-4.8163783E-2,5.9681754E-3,3.4583356E-2,-2.6583234E-2,-7.3475175E-2,-1.3518783E-2,-8.018371E-2,-1.0515667E-2,1.5808461E-2,-3.4871813E-2,4.6965856E-2,3.1134435E-3,3.2592274E-2,-3.21113E-2,1.2204791E-2,-6.384229E-2,-1.46846725E-2,5.491336E-2,1.2511494E-2,-4.61289E-2,4.5220148E-2,-8.865627E-3,-4.055351E-2,5.38497E-3,-2.318196E-3,-4.7763232E-2,6.9892816E-2,1.4516759E-2,-6.1470818E-2,-8.397714E-3,4.7182627E-2,-7.744444E-3,1.12154605E-2,-4.577188E-2,-1.7398468E-3,-6.289284E-2,-3.082907E-2,2.0850495E-2,5.763005E-3,4.866531E-2,5.454593E-3,-5.488878E-2,3.2539986E-4,5.0342303E-2,1.3173967E-2,-4.844643E-2,-4.2412043E-2,2.751788E-2,6.2028825E-2,-7.22131E-3,2.3531115E-2,-4.323752E-2,6.1100133E-2,1.6863966E-2,5.6867905E-2,-3.0838086E-3,-5.5846967E-2,2.8365958E-3,-1.7953094E-2,4.3268636E-2,-4.8248865E-2,1.2384088E-2,-8.200549E-3,-7.500386E-2,3.8094476E-2,1.689181E-3,2.0365067E-2,-4.0532462E-2,-5.472245E-4,5.0893515E-2,-4.12218E-3,-6.399546E-2,4.7863495E-2,-1.03036575E-2,-4.33083E-2,1.2385282E-2,1.8587736E-2,-4.3097984E-2,-2.3009261E-2,4.690602E-2,3.8578864E-2,1.6051068E-3,-2.1645732E-3,7.987437E-2],"categories":[],"categories_nodes":[],"categories_segments":[],"categories_sizes":[],"default_left":[0,0,0,0,0,0,0,0,0,0,0,0,0,0,0,0,0,0,0,0,0,0,0,0,0,0,0,0,0,0,0,0,0,0,0,0,0,0,0,0,0,0,0,0,0,0,0,0,0,0,0,0,0,0,0,0,0,0,0,0,0,0,0,0,0,0,0,0,0,0,0,0,0,0,0,0,0,0,0,0,0,0,0,0,0,0,0,0,0,0,0,0,0,0,0,0,0,0,0,0,0,0,0,0,0,0,0,0,0,0,0,0,0,0,0,0,0,0,0,0,0,0,0,0,0,0,0,0,0,0,0,0,0,0,0,0,0,0,0,0,0,0,0,0,0,0,0,0,0,0,0,0,0,0,0,0,0,0,0,0,0,0,0,0,0,0,0,0,0,0,0,0,0,0,0,0,0,0,0,0,0,0,0,0,0,0,0,0,0,0,0,0,0,0,0,0,0,0,0,0,0,0,0,0,0,0,0,0,0,0,0,0,0,0,0,0,0,0,0,0,0,0,0,0,0,0,0,0,0,0,0,0,0,0,0,0,0,0,0,0,0,0,0,0,0,0,0,0,0,0,0,0,0,0,0,0,0,0,0,0,0,0,0,0,0,0,0,0,0,0,0,0,0,0,0,0,0,0,0,0,0,0,0,0,0,0,0,0,0,0,0,0,0,0,0,0,0,0,0,0,0,0,0,0,0,0,0,0,0,0,0,0,0,0,0,0,0,0,0,0,0,0,0,0,0,0,0,0,0,0,0,0,0,0,0,0,0,0,0,0,0,0,0,0,0,0,0,0,0,0,0,0,0,0,0,0,0,0,0,0,0,0,0,0,0,0,0,0,0,0,0,0,0,0,0,0,0,0,0,0,0,0,0,0,0,0,0,0,0,0,0,0,0,0,0,0,0,0,0,0,0,0,0,0,0],"id":2,"left_children":[1,3,5,7,9,11,13,15,17,19,21,23,25,27,29,31,33,35,37,39,41,43,45,47,49,51,53,55,57,59,61,63,65,-1,-1,67,69,71,73,-1,75,77,79,81,83,85,87,89,91,93,95,-1,-1,-1,97,99,101,-1,-1,103,-1,105,107,-1,109,-1,-1,111,113,115,117,119,-1,121,123,125,-1,127,129,131,133,135,137,-1,139,-1,-1,-1,141,-1,143,-1,-1,-1,145,147,149,151,-1,-1,-1,153,-1,-1,-1,-1,-1,155,157,159,-1,-1,-1,161,163,165,167,169,-1,-1,-1,171,173,-1,175,177,-1,179,181,183,185,187,189,191,193,195,197,199,-1,201,-1,203,-1,205,207,209,211,213,215,217,219,-1,221,-1,-1,223,-1,225,227,-1,-1,229,231,-1,233,235,237,-1,239,-1,241,243,245,247,249,251,253,-1,255,257,259,261,263,265,267,-1,269,-1,-1,271,-1,273,275,277,279,281,283,285,287,-1,-1,289,-1,-1,291,-1,-1,-1,293,-1,-1,-1,-1,295,-1,297,299,301,303,305,307,-1,309,-1,-1,-1,-1,311,313,-1,315,317,-1,-1,319,321,323,-1,325,327,-1,-1,-1,329,331,333,335,337,339,341,343,-1,345,-1,347,-1,-1,-1,349,351,353,355,357,359,-1,361,363,365,367,-1,369,-1,-1,-1,-1,-1,-1,-1,-1,371,373,-1,375,377,-1,-1,-1,379,381,383,-1,-1,-1,-1,-1,-1,-1,-1,-1,-1,385,387,389,391,-1,393,395,397,399,-1,-1,-1,401,-1,403,-1,-1,-1,-1,-1,-1,-1,-1,-1,-1,-1,-1,-1,-1,-1,-1,-1,-1,-1,-1,-1,-1,-1,-1,-1,-1,-1,-1,-1,-1,-1,-1,-1,-1,-1,-1,-1,-1,-1,-1,-1,-1,-1,-1,-1,-1,-1,-1,-1,-1,-1,-1,-1,-1,-1,-1,-1,-1,-1,-1,-1,-1,-1,-1,-1,-1,-1,-1,-1,-1,-1,-1,-1,-1,-1,-1,-1,-1,-1,-1,-1,-1,-1,-1,-1,-1,-1,-1,-1,-1],"loss_changes":[6.0518805E2,2.4010146E2,1.831737E2,1.9473608E2,1.3217067E2,9.9062164E1,9.437433E1,2.6563404E1,7.303839E1,1.0501843E2,5.2257988E1,7.543817E1,3.0761932E1,1.7136238E1,8.061658E1,1.6642403E1,1.0565753E0,7.045599E1,3.1928307E1,8.308273E0,7.820325E1,3.945508E1,1.9948475E1,1.5602795E1,6.082292E1,2.1487737E0,1.56475525E1,1.1330532E1,3.7328582E0,1.5445638E1,4.6085266E1,8.493378E0,7.190729E0,0E0,0E0,4.2539497E1,1.9360413E1,2.9579391E0,2.7277466E1,0E0,7.3971863E0,6.2321056E1,4.4120758E1,3.2761044E1,1.8967102E1,4.100826E0,1.4162474E1,7.351082E0,7.1059628E0,1.1429001E1,4.526229E1,0E0,0E0,0E0,9.593536E0,3.4159033E0,3.6652508E0,0E0,0E0,9.585798E0,0E0,4.0044165E0,3.00083E1,0E0,3.4924774E0,0E0,0E0,1.179249E1,1.6744278E1,1.8370483E1,1.0026579E1,7.838974E-1,0E0,2.4784065E1,1.6711773E1,1.8328247E0,0E0,4.766987E1,3.0656103E1,9.471977E0,2.786943E1,3.363308E1,8.919806E0,0E0,1.5641663E1,0E0,0E0,0E0,5.7913475E0,0E0,3.5213318E0,0E0,0E0,0E0,1.1461151E1,1.791928E1,4.7663284E1,6.8344727E0,0E0,0E0,0E0,2.0487099E0,0E0,0E0,0E0,0E0,0E0,1.1243201E1,2.5200867E1,6.246948E-1,0E0,0E0,0E0,1.8381294E1,8.562756E0,1.2433956E1,9.041931E0,5.98219E0,0E0,0E0,0E0,2.169825E1,1.3949052E1,0E0,1.5303524E1,7.752838E-1,0E0,4.03341E1,1.4398856E1,2.5393452E1,1.3554952E1,7.3513055E0,8.627597E0,1.4490925E1,2.3597748E1,1.4386372E1,1.9471611E1,4.876831E0,0E0,1.2136642E1,0E0,6.647953E0,0E0,5.023344E0,2.1298828E0,5.827536E0,4.700203E-1,9.66346E0,1.0782167E1,1.9809608E1,3.7543358E1,0E0,5.6943665E0,0E0,0E0,6.5773563E0,0E0,6.9817276E0,2.0990906E1,0E0,0E0,9.090279E0,1.1437099E1,0E0,6.348709E0,9.963274E0,7.7301826E0,0E0,9.279846E0,0E0,6.546921E0,1.6727594E1,1.55638275E1,1.5062731E1,1.5825794E1,1.0609429E1,4.284914E0,0E0,8.816147E-1,1.0743409E1,2.9186134E1,9.821638E0,7.2891674E0,1.876086E1,1.7831467E1,0E0,1.1076601E1,0E0,0E0,2.4405327E0,0E0,6.408495E0,6.4967575E0,4.9592705E0,2.250328E1,8.328995E0,8.42388E0,7.602768E-1,2.058039E1,0E0,0E0,1.1133087E1,0E0,0E0,6.180954E-1,0E0,0E0,0E0,1.8103943E0,0E0,0E0,0E0,0E0,8.994892E0,0E0,4.1052628E0,8.738122E0,1.1906293E1,7.768223E0,1.3999674E1,3.729402E1,0E0,2.0979614E0,0E0,0E0,0E0,0E0,6.4853663E0,1.6700195E1,0E0,5.085718E0,8.5466585E0,0E0,0E0,2.421402E0,4.640703E0,7.569327E0,0E0,8.216133E-1,9.172241E0,0E0,0E0,0E0,1.3975273E1,1.4540844E0,8.633505E0,1.0978905E1,8.538313E0,5.4990396E0,4.287858E0,1.0546951E1,0E0,1.9011173E0,0E0,1.2468338E-1,0E0,0E0,0E0,1.3663864E0,2.4235779E1,1.0626737E1,7.131298E0,6.672397E0,1.3038597E0,0E0,1.0180856E1,1.4126354E1,2.3731712E1,1.4198395E1,0E0,8.614853E0,0E0,0E0,0E0,0E0,0E0,0E0,0E0,0E0,8.37693E0,1.6658264E1,0E0,6.1419125E0,4.001443E0,0E0,0E0,0E0,1.6256666E1,1.8922958E1,4.180847E0,0E0,0E0,0E0,0E0,0E0,0E0,0E0,0E0,0E0,0E0,1.048147E0,6.5905333E0,3.0453987E0,5.5709457E0,0E0,5.403193E0,8.77841E0,1.2181846E1,3.8124023E1,0E0,0E0,0E0,1.1023693E0,0E0,1.5205017E1,0E0,0E0,0E0,0E0,0E0,0E0,0E0,0E0,0E0,0E0,0E0,0E0,0E0,0E0,0E0,0E0,0E0,0E0,0E0,0E0,0E0,0E0,0E0,0E0,0E0,0E0,0E0,0E0,0E0,0E0,0E0,0E0,0E0,0E0,0E0,0E0,0E0,0E0,0E0,0E0,0E0,0E0,0E0,0E0,0E0,0E0,0E0,0E0,0E0,0E0,0E0,0E0,0E0,0E0,0E0,0E0,0E0,0E0,0E0,0E0,0E0,0E0,0E0,0E0,0E0,0E0,0E0,0E0,0E0,0E0,0E0,0E0,0E0,0E0,0E0,0E0,0E0,0E0,0E0,0E0,0E0,0E0,0E0,0E0,0E0,0E0,0E0,0E0,0E0,0E0],"parents":[2147483647,0,0,1,1,2,2,3,3,4,4,5,5,6,6,7,7,8,8,9,9,10,10,11,11,12,12,13,13,14,14,15,15,16,16,17,17,18,18,19,19,20,20,21,21,22,22,23,23,24,24,25,25,26,26,27,27,28,28,29,29,30,30,31,31,32,32,35,35,36,36,37,37,38,38,40,40,41,41,42,42,43,43,44,44,45,45,46,46,47,47,48,48,49,49,50,50,54,54,55,55,56,56,59,59,61,61,62,62,64,64,67,67,68,68,69,69,70,70,71,71,73,73,74,74,75,75,77,77,78,78,79,79,80,80,81,81,82,82,84,84,88,88,90,90,94,94,95,95,96,96,97,97,101,101,107,107,108,108,109,109,113,113,114,114,115,115,116,116,117,117,121,121,122,122,124,124,125,125,127,127,128,128,129,129,130,130,131,131,132,132,133,133,134,134,135,135,136,136,137,137,139,139,141,141,143,143,144,144,145,145,146,146,147,147,148,148,149,149,150,150,152,152,155,155,157,157,158,158,161,161,162,162,164,164,165,165,166,166,168,168,170,170,171,171,172,172,173,173,174,174,175,175,176,176,178,178,179,179,180,180,181,181,182,182,183,183,184,184,186,186,189,189,191,191,192,192,193,193,194,194,195,195,196,196,197,197,198,198,201,201,204,204,208,208,213,213,215,215,216,216,217,217,218,218,219,219,220,220,222,222,227,227,228,228,230,230,231,231,234,234,235,235,236,236,238,238,239,239,243,243,244,244,245,245,246,246,247,247,248,248,249,249,250,250,252,252,254,254,258,258,259,259,260,260,261,261,262,262,263,263,265,265,266,266,267,267,268,268,270,270,279,279,280,280,282,282,283,283,287,287,288,288,289,289,300,300,301,301,302,302,303,303,305,305,306,306,307,307,308,308,312,312,314,314],"right_children":[2,4,6,8,10,12,14,16,18,20,22,24,26,28,30,32,34,36,38,40,42,44,46,48,50,52,54,56,58,60,62,64,66,-1,-1,68,70,72,74,-1,76,78,80,82,84,86,88,90,92,94,96,-1,-1,-1,98,100,102,-1,-1,104,-1,106,108,-1,110,-1,-1,112,114,116,118,120,-1,122,124,126,-1,128,130,132,134,136,138,-1,140,-1,-1,-1,142,-1,144,-1,-1,-1,146,148,150,152,-1,-1,-1,154,-1,-1,-1,-1,-1,156,158,160,-1,-1,-1,162,164,166,168,170,-1,-1,-1,172,174,-1,176,178,-1,180,182,184,186,188,190,192,194,196,198,200,-1,202,-1,204,-1,206,208,210,212,214,216,218,220,-1,222,-1,-1,224,-1,226,228,-1,-1,230,232,-1,234,236,238,-1,240,-1,242,244,246,248,250,252,254,-1,256,258,260,262,264,266,268,-1,270,-1,-1,272,-1,274,276,278,280,282,284,286,288,-1,-1,290,-1,-1,292,-1,-1,-1,294,-1,-1,-1,-1,296,-1,298,300,302,304,306,308,-1,310,-1,-1,-1,-1,312,314,-1,316,318,-1,-1,320,322,324,-1,326,328,-1,-1,-1,330,332,334,336,338,340,342,344,-1,346,-1,348,-1,-1,-1,350,352,354,356,358,360,-1,362,364,366,368,-1,370,-1,-1,-1,-1,-1,-1,-1,-1,372,374,-1,376,378,-1,-1,-1,380,382,384,-1,-1,-1,-1,-1,-1,-1,-1,-1,-1,386,388,390,392,-1,394,396,398,400,-1,-1,-1,402,-1,404,-1,-1,-1,-1,-1,-1,-1,-1,-1,-1,-1,-1,-1,-1,-1,-1,-1,-1,-1,-1,-1,-1,-1,-1,-1,-1,-1,-1,-1,-1,-1,-1,-1,-1,-1,-1,-1,-1,-1,-1,-1,-1,-1,-1,-1,-1,-1,-1,-1,-1,-1,-1,-1,-1,-1,-1,-1,-1,-1,-1,-1,-1,-1,-1,-1,-1,-1,-1,-1,-1,-1,-1,-1,-1,-1,-1,-1,-1,-1,-1,-1,-1,-1,-1,-1,-1,-1,-1,-1,-1],"split_conditions":[5.4509807E-1,1.6862746E-1,5.6078434E-1,5.882353E-2,6.392157E-1,9.3333334E-1,2.2352941E-1,3.1764707E-1,2.4705882E-1,4.7058824E-2,6.4705884E-1,1.2156863E-1,9.803922E-2,8.392157E-1,1.254902E-1,3.6862746E-1,5.411765E-1,2.5882354E-1,6.666667E-2,1.9215687E-1,5.137255E-1,6.509804E-1,3.2156864E-1,6.0784316E-1,7.450981E-2,1.6078432E-1,2.4313726E-1,5.9607846E-1,3.529412E-1,7.6862746E-1,4.7058824E-2,5.0980393E-2,3.0588236E-1,-3.9803937E-2,-2.2844672E-3,1.254902E-1,5.058824E-1,6.9803923E-1,6.666667E-1,5.842433E-3,6.7058825E-1,4.2352942E-1,1.3725491E-1,8.862745E-1,1.882353E-1,5.3333336E-1,1.5294118E-1,5.2156866E-1,5.0980395E-1,1.2156863E-1,2.1176471E-1,3.1198075E-3,-4.0446542E-2,-1.5085913E-2,6.4705884E-1,3.9215687E-1,1.9607843E-1,-7.372176E-3,4.3505624E-2,4.392157E-1,3.0755779E-2,7.607843E-1,9.803922E-2,-4.4689397E-4,6.27451E-1,-3.3925552E-2,2.770151E-2,4.8235294E-1,4.0392157E-1,3.2156864E-1,6.392157E-1,2.627451E-1,-8.025249E-3,1.6078432E-1,3.647059E-1,6.9411767E-1,2.3913537E-3,5.3333336E-1,5.568628E-1,5.529412E-1,1.4509805E-1,5.2156866E-1,5.4509807E-1,1.659371E-2,8.1960785E-1,-4.3432333E-2,9.169693E-3,-2.2130903E-2,8.745098E-1,6.0029174E-3,2.8627452E-1,-2.6057718E-2,3.366686E-2,2.069443E-2,1.2941177E-1,3.0980393E-1,2.0784314E-1,3.137255E-2,-1.3258205E-3,-1.4375122E-2,3.165021E-2,1.6862746E-1,-3.404259E-3,1.4786102E-2,-6.0782026E-2,-4.5020215E-2,8.213337E-3,7.372549E-1,5.882353E-2,7.450981E-2,8.744777E-3,6.044792E-2,-2.0258194E-2,1.9607843E-1,1.2156863E-1,4.745098E-1,5.882353E-2,5.254902E-1,2.3326961E-2,-1.4562274E-2,-7.6832324E-2,1.764706E-1,3.372549E-1,-3.6559116E-2,3.4901962E-1,7.450981E-2,-1.117221E-2,5.490196E-2,5.6078434E-1,4.3137255E-1,2.901961E-1,1.254902E-1,7.294118E-1,3.4901962E-1,7.8431375E-2,6.3529414E-1,1.9215687E-1,6.54902E-1,-1.5098276E-2,8.745098E-1,2.1129945E-2,1.6470589E-1,-4.1820076E-3,3.0980393E-1,4.1568628E-1,4.3137256E-2,8.9411765E-1,5.0980395E-1,4.1960785E-1,3.0588236E-1,1.8039216E-1,2.065461E-3,8.627451E-2,-8.703063E-3,-6.911158E-2,7.9607844E-1,4.3122735E-2,7.607843E-1,7.8431375E-2,1.7262977E-2,8.212319E-2,1.05882354E-1,7.7254903E-1,2.6769682E-3,1.6470589E-1,1.6862746E-1,1.5686275E-1,-5.491581E-3,6.4705884E-1,7.7302987E-3,5.411765E-1,6.4705884E-1,1.6470589E-1,6.117647E-1,1.8039216E-1,1.764706E-1,2.2352941E-1,-1.7113438E-2,6.0784316E-1,2.0392157E-1,5.2156866E-1,5.764706E-1,6.9803923E-1,2.784314E-1,5.529412E-1,-2.6539901E-2,3.137255E-1,-2.2090644E-2,4.1103996E-2,4.3529412E-1,1.5579565E-2,5.7254905E-1,6.039216E-1,5.647059E-1,1.2156863E-1,3.4509805E-1,6.54902E-1,8.392157E-1,6.117647E-1,6.0850706E-2,-2.4558927E-3,7.490196E-1,5.486415E-3,-2.957328E-3,2.901961E-1,-4.0981147E-2,1.1958304E-2,-1.096234E-2,8.784314E-1,-3.465059E-2,2.0359328E-2,-7.338475E-2,-1.4513194E-2,5.7254905E-1,-2.7575513E-2,1.5686275E-1,4.9411765E-1,3.2941177E-1,5.921569E-1,2.784314E-1,1.1764706E-1,7.6446882E-3,4.7058824E-2,-4.1317504E-2,1.8184675E-2,-3.9272975E-2,2.5338745E-2,6.313726E-1,5.882353E-2,1.3610368E-2,1.6862746E-1,4.7843137E-1,-3.5558593E-2,7.5386633E-4,3.254902E-1,3.4117648E-1,5.294118E-1,3.3645842E-3,4.0784314E-1,7.372549E-1,1.4195555E-3,-6.1711885E-2,3.7519564E-3,1.254902E-1,5.7254905E-1,3.137255E-1,1.3725491E-1,1.8431373E-1,4.509804E-1,2.5882354E-1,6.2352943E-1,3.0917896E-2,4.1960785E-1,2.778156E-3,6.2352943E-1,-7.6944225E-2,-1.4434233E-2,1.9697128E-2,3.764706E-1,8.039216E-1,6.156863E-1,3.1764707E-1,3.372549E-1,4.745098E-1,-2.1467825E-2,4.509804E-1,5.4901963E-1,2.2745098E-1,2.1960784E-1,-1.8640736E-2,8E-1,-3.7280626E-3,-5.7260673E-2,4.8941474E-2,-1.3592032E-2,-5.9183825E-2,4.4559175E-3,-3.557217E-2,1.5125169E-2,4.8235294E-1,6.8235296E-1,-1.43768955E-2,5.803922E-1,4.9411765E-1,2.0785922E-2,-7.4712284E-2,-1.4119339E-2,4.9019608E-1,5.411765E-1,2.5490198E-1,2.7737205E-3,1.3991809E-2,7.320483E-2,-7.71149E-2,-1.3836284E-2,5.155337E-2,-1.6022174E-2,-5.0499775E-3,-6.674894E-2,-3.350928E-2,5.568628E-1,4.5490196E-1,2.509804E-1,2E-1,6.740988E-3,3.1764707E-1,6.8235296E-1,3.0980393E-1,1.9215687E-1,1.3776957E-2,8.475239E-2,-2.674144E-2,2.627451E-1,-1.5614492E-2,4.3137256E-2,-6.1095577E-2,-1.7832706E-3,4.7742464E-2,-1.3246136E-2,-7.3086046E-2,-1.0267992E-2,-4.8163783E-2,5.9681754E-3,3.4583356E-2,-2.6583234E-2,-7.3475175E-2,-1.3518783E-2,-8.018371E-2,-1.0515667E-2,1.5808461E-2,-3.4871813E-2,4.6965856E-2,3.1134435E-3,3.2592274E-2,-3.21113E-2,1.2204791E-2,-6.384229E-2,-1.46846725E-2,5.491336E-2,1.2511494E-2,-4.61289E-2,4.5220148E-2,-8.865627E-3,-4.055351E-2,5.38497E-3,-2.318196E-3,-4.7763232E-2,6.9892816E-2,1.4516759E-2,-6.1470818E-2,-8.397714E-3,4.7182627E-2,-7.744444E-3,1.12154605E-2,-4.577188E-2,-1.7398468E-3,-6.289284E-2,-3.082907E-2,2.0850495E-2,5.763005E-3,4.866531E-2,5.454593E-3,-5.488878E-2,3.2539986E-4,5.0342303E-2,1.3173967E-2,-4.844643E-2,-4.2412043E-2,2.751788E-2,6.2028825E-2,-7.22131E-3,2.3531115E-2,-4.323752E-2,6.1100133E-2,1.6863966E-2,5.6867905E-2,-3.0838086E-3,-5.5846967E-2,2.8365958E-3,-1.7953094E-2,4.3268636E-2,-4.8248865E-2,1.2384088E-2,-8.200549E-3,-7.500386E-2,3.8094476E-2,1.689181E-3,2.0365067E-2,-4.0532462E-2,-5.472245E-4,5.0893515E-2,-4.12218E-3,-6.399546E-2,4.7863495E-2,-1.03036575E-2,-4.33083E-2,1.2385282E-2,1.8587736E-2,-4.3097984E-2,-2.3009261E-2,4.690602E-2,3.8578864E-2,1.6051068E-3,-2.1645732E-3,7.987437E-2],"split_indices":[2,0,2974,397,786,66,1822,31,3066,1866,2966,1113,1725,245,2208,1345,1672,2678,1875,109,2977,2256,1632,2951,1972,2631,674,26,1961,2974,1972,2161,2979,0,0,1922,2709,2575,2977,0,2880,2033,2325,42,491,305,2335,8,2081,2863,1493,0,0,0,3066,2481,1822,0,0,2777,0,2494,1011,0,2382,0,0,1619,1519,2729,2123,2582,0,198,2498,589,0,1917,3061,2894,1020,592,2768,0,160,0,0,0,2418,0,2720,0,0,0,2156,2135,1763,2355,0,0,0,2246,0,0,0,0,0,2498,1490,2250,0,0,0,723,2741,2087,250,2712,0,0,0,484,2859,0,1105,1303,0,2265,2970,2651,1499,2283,2974,1996,2289,1189,1755,1702,0,1783,0,1681,0,1648,199,2163,324,1313,3064,2081,2882,0,1889,0,0,50,0,769,1990,0,0,2287,1008,0,1738,2178,329,0,20,0,2944,419,2922,2174,250,103,1966,0,1972,2749,1638,81,2277,1208,677,0,1006,0,0,2960,0,1568,2398,1859,1187,868,1765,276,732,0,0,2584,0,0,212,0,0,0,94,0,0,0,0,708,0,3028,1441,1921,2755,1334,2112,0,2617,0,0,0,0,341,918,0,1518,311,0,0,2768,118,1070,0,388,438,0,0,0,763,1419,2091,316,2095,1925,450,3043,0,1903,0,1875,0,0,0,1928,1486,1632,1998,1787,1978,0,2024,86,151,1110,0,1403,0,0,0,0,0,0,0,0,2554,2361,0,916,41,0,0,0,2397,3011,2267,0,0,0,0,0,0,0,0,0,0,1952,823,1639,2143,0,2018,1749,2923,1223,0,0,0,2057,0,2543,0,0,0,0,0,0,0,0,0,0,0,0,0,0,0,0,0,0,0,0,0,0,0,0,0,0,0,0,0,0,0,0,0,0,0,0,0,0,0,0,0,0,0,0,0,0,0,0,0,0,0,0,0,0,0,0,0,0,0,0,0,0,0,0,0,0,0,0,0,0,0,0,0,0,0,0,0,0,0,0,0,0,0,0,0,0,0,0,0,0],"split_type":[0,0,0,0,0,0,0,0,0,0,0,0,0,0,0,0,0,0,0,0,0,0,0,0,0,0,0,0,0,0,0,0,0,0,0,0,0,0,0,0,0,0,0,0,0,0,0,0,0,0,0,0,0,0,0,0,0,0,0,0,0,0,0,0,0,0,0,0,0,0,0,0,0,0,0,0,0,0,0,0,0,0,0,0,0,0,0,0,0,0,0,0,0,0,0,0,0,0,0,0,0,0,0,0,0,0,0,0,0,0,0,0,0,0,0,0,0,0,0,0,0,0,0,0,0,0,0,0,0,0,0,0,0,0,0,0,0,0,0,0,0,0,0,0,0,0,0,0,0,0,0,0,0,0,0,0,0,0,0,0,0,0,0,0,0,0,0,0,0,0,0,0,0,0,0,0,0,0,0,0,0,0,0,0,0,0,0,0,0,0,0,0,0,0,0,0,0,0,0,0,0,0,0,0,0,0,0,0,0,0,0,0,0,0,0,0,0,0,0,0,0,0,0,0,0,0,0,0,0,0,0,0,0,0,0,0,0,0,0,0,0,0,0,0,0,0,0,0,0,0,0,0,0,0,0,0,0,0,0,0,0,0,0,0,0,0,0,0,0,0,0,0,0,0,0,0,0,0,0,0,0,0,0,0,0,0,0,0,0,0,0,0,0,0,0,0,0,0,0,0,0,0,0,0,0,0,0,0,0,0,0,0,0,0,0,0,0,0,0,0,0,0,0,0,0,0,0,0,0,0,0,0,0,0,0,0,0,0,0,0,0,0,0,0,0,0,0,0,0,0,0,0,0,0,0,0,0,0,0,0,0,0,0,0,0,0,0,0,0,0,0,0,0,0,0,0,0,0,0,0,0,0,0,0,0,0,0,0,0,0,0,0,0,0,0,0,0,0,0,0,0,0,0,0,0],"sum_hessian":[3.1837659E3,2.1175469E3,1.0662189E3,8.44872E2,1.2726749E3,6.2568494E2,4.4053394E2,6.1600254E1,7.832717E2,9.032588E2,3.6941608E2,5.354606E2,9.022436E1,3.6666676E1,4.0386725E2,5.4873615E1,6.7266393E0,4.5267148E2,3.3060025E2,5.2382187E1,8.508766E2,3.267519E2,4.266419E1,6.0358776E1,4.7510184E2,6.7415648E0,8.3482796E1,2.719503E1,9.471646E0,2.2201807E1,3.8166544E2,4.5889153E1,8.984463E0,3.4892702E0,3.2373688E0,1.0870568E2,3.439658E2,3.240958E1,2.9819067E2,3.9926128E0,4.8389572E1,5.832352E2,2.676414E2,2.1458345E2,1.12168434E2,9.986842E0,3.2677345E1,5.012524E1,1.0233534E1,3.768524E1,4.374166E2,3.2461715E0,3.4953928E0,3.74262E0,7.974017E1,6.986496E0,2.0208534E1,3.4864345E0,5.985212E0,1.696337E1,5.238438E0,9.230953E0,3.724345E2,3.989849E0,4.1899303E1,4.240771E0,4.7436914E0,1.719975E1,9.150593E1,3.1727658E2,2.6689215E1,2.916608E1,3.2434998E0,2.5725272E2,4.0937977E1,4.4645126E1,3.744448E0,2.8901703E2,2.9421817E2,2.9696991E1,2.3794441E2,1.9485933E2,1.9724121E1,6.235991E0,1.0593245E2,6.742657E0,3.2441845E0,4.7444077E0,2.793294E1,3.4918518E0,4.663339E1,4.497094E0,5.7364397E0,3.2454605E0,3.443978E1,5.7127247E1,3.8028934E2,7.5749466E1,3.9907095E0,3.746444E0,3.2400522E0,1.647166E1,3.7368746E0,3.2424104E0,1.3720958E1,5.991862E0,3.2390912E0,1.7456022E1,3.549785E2,3.86553E1,3.2440045E0,1.3957608E1,3.2421434E0,4.988108E1,4.162485E1,5.4340973E1,2.629356E2,2.0699991E1,5.989224E0,3.243314E0,2.5922766E1,1.6465396E2,9.259874E1,6.989157E0,3.3948822E1,4.1149563E1,3.4955616E0,2.3410664E2,5.4910397E1,2.5827972E2,3.593845E1,9.482454E0,2.0214537E1,2.196224E1,2.1598216E2,4.0187893E1,1.5467145E2,1.5232853E1,4.4912677E0,1.0268588E2,3.2465644E0,2.4689302E1,3.243636E0,1.0224196E1,3.6409195E1,9.737255E0,2.4702526E1,2.0453218E1,3.667403E1,5.262567E1,3.2766367E2,3.2440796E0,7.250539E1,3.2448308E0,1.3226829E1,1.147714E1,5.9788823E0,7.2323174E0,3.4774615E2,3.4942124E0,3.5161087E1,2.542527E1,2.4455809E1,5.242475E0,3.6382378E1,2.768349E1,2.665748E1,5.231695E0,2.5770392E2,4.741603E0,1.5958388E1,7.686009E1,8.779387E1,2.8946417E1,6.3652325E1,1.4226673E1,1.9722147E1,4.236528E0,3.6913036E1,1.7214485E1,2.1689215E2,4.193388E1,1.2976517E1,1.1130477E2,1.4697495E2,5.9908595E0,2.9947588E1,3.9927847E0,5.4896693E0,1.622239E1,3.9921486E0,9.735689E0,1.2226551E1,1.1228638E1,2.0475352E2,2.5716955E1,1.4470937E1,2.9920353E1,1.2475109E2,1.1985954E1,3.2468991E0,9.7692894E1,4.9929895E0,3.2429008E0,2.1446402E1,5.483712E0,4.7404838E0,3.494673E0,3.291452E1,3.4954436E0,6.2418113E0,2.145813E1,3.2443962E0,1.4466757E1,5.986462E0,2.395637E1,1.271766E1,2.2693926E1,2.9931746E1,3.9441544E1,2.882221E2,3.7432585E0,6.876213E1,7.7384567E0,3.7386837E0,3.995324E0,3.2369936E0,1.1211521E1,3.3653464E2,4.736122E0,2.0689148E1,2.0714853E1,3.740956E0,3.4902444E0,3.2892136E1,1.4207705E1,1.3475786E1,3.7411277E0,2.2916353E1,2.5421185E2,3.4920616E0,1.1718126E1,4.240262E0,6.8374756E1,8.485334E0,1.0727429E1,7.706644E1,2.0468721E1,8.477695E0,1.0234225E1,5.3418102E1,5.989029E0,8.237644E0,3.7457972E0,1.597635E1,3.366912E1,3.2439141E0,3.7435708E0,1.3470914E1,1.9192961E2,2.4962551E1,2.6451328E1,1.54825535E1,8.985424E0,3.9910932E0,2.5198265E1,8.610651E1,1.2352058E2,2.345437E1,4.2417626E0,2.5705826E1,3.2451675E0,1.29772215E1,5.993523E0,3.7421665E0,7.23643E0,4.990121E0,6.7378993E0,4.490739E0,9.728024E0,1.9502551E2,4.993212E0,2.0723743E1,9.978745E0,4.492191E0,2.6677338E1,3.243014E0,3.7177925E1,8.7573166E1,9.295236E1,4.7405334E0,3.2436626E0,1.820274E1,2.9173714E1,3.7408068E0,9.978665E0,4.4880924E0,3.991084E0,1.9965286E1,6.237481E0,6.4801784E0,1.0232975E1,1.2460952E1,2.469506E1,5.2366858E0,9.737053E0,2.9704489E1,2.4451893E1,2.6377023E2,3.2404897E0,6.552164E1,4.49148E0,6.7200413E0,3.2394319E0,3.332952E2,1.5950242E1,4.7389054E0,1.5225017E1,5.489837E0,2.9401304E1,3.490829E0,1.0215384E1,3.9923215E0,1.0230594E1,3.2451928E0,1.9676073E1,3.2402802E0,2.4773795E2,6.473909E0,1.4473057E1,5.3901703E1,5.240527E0,3.2448075E0,5.988155E0,4.7392745E0,3.4950008E0,7.357144E1,3.2455854E0,1.7223137E1,3.986894E0,4.490802E0,6.9911084E0,3.2431164E0,3.718459E1,1.6233513E1,3.7439785E0,4.4936657E0,1.2731219E1,3.2451303E0,1.0224278E1,3.2466354E0,1.7071832E2,2.1211277E1,1.5732039E1,9.230513E0,6.236871E0,2.0214457E1,5.9922285E0,9.490325E0,3.993475E0,4.9919486E0,9.232507E0,1.5965759E1,7.362117E1,1.2485337E1,1.5976265E1,1.0754431E2,5.733195E0,1.7721174E1,2.1464457E1,4.2413697E0,4.2424607E0,5.485563E0,1.6534901E2,2.9676493E1,1.5980944E1,4.7428E0,6.7341657E0,3.2445803E0,2.5199934E1,1.1977993E1,7.4345985E1,1.3227176E1,3.7451243E0,8.920724E1,3.2401235E0,3.240055E0,3.2451453E0,6.9878297E0,3.4906244E0,8.970327E0,5.488443E0,1.9206617E1,5.744054E0,3.9929996E0,2.2714148E1,6.990341E0,9.735664E0,1.4716228E1,1.8216516E1,2.4555371E2,3.481697E0,3.2383442E0,5.48065E0,3.2781454E2],"tree_param":{"num_deleted":"0","num_feature":"3072","num_nodes":"405","size_leaf_vector":"1"}},{"base_weights":[4.4853673E-3,-2.9016903E-1,6.147971E-1,-8.109771E-1,-6.047923E-2,3.9988798E-1,1.3646861E0,-1.1968134E-1,-1.1198072E0,-1.0478873E0,2.1164635E-2,-6.607437E-1,5.219783E-1,-4.0316173E-1,1.4604341E0,8.164484E-1,-3.990605E-1,2.2888215E-1,-1.1801083E0,1.6937384E-1,-1.1529733E0,-9.117857E-2,5.846783E-1,-7.7269787E-1,3.1019662E-2,-4.0591797E-1,6.670335E-1,1.70837E-2,-7.555832E-1,-3.6849655E-2,1.5252719E0,1.1030786E0,-2.8810453E-1,1.8775097E-1,-6.4909905E-1,8.1339324E-1,-4.4775877E-2,-1.2517716E0,3.2612893E-3,-2.4361152E-2,3.355668E-2,-1.3069348E0,-2.2670624E-1,5.190907E-2,-5.860994E-1,7.594731E-1,-4.4363794E-1,3.20064E-2,-9.66404E-1,1.1216776E-1,-7.486412E-1,-3.9895627E-1,7.8025657E-1,-8.463737E-3,-4.363761E-2,-3.385586E-2,2.7903033E-2,1.6910048E-1,1.5937719E0,1.3127246E0,-1.1747985E-2,-3.8769178E-2,1.5327759E-2,6.3055193E-1,-5.9903395E-1,-3.0532983E-1,-1.0753006E0,5.420525E-2,-8.59191E-3,9.311543E-2,-1.3080342E0,5.046827E-1,-7.734392E-1,-5.325268E-1,-1.4343404E0,3.3167783E-2,-6.8452626E-1,-3.5938567E-1,2.5922644E-1,-7.438799E-1,3.8451907E-1,-7.178325E-1,8.9375824E-1,-9.987852E-1,6.2193525E-1,6.72756E-1,-5.615871E-1,-1.0746825E0,3.298038E-3,-3.1018925E-1,8.212449E-1,-1.108184E0,-1.658677E-1,-7.6585466E-1,4.617662E-1,-4.1105497E-1,8.776587E-1,3.6366645E-2,-2.5738329E-2,-9.976331E-3,1.6285089E0,1.4320258E0,2.23448E-3,-3.1543296E-2,9.188654E-1,-5.173452E-2,-6.4149825E-3,-6.945293E-1,1.6515522E-1,4.530623E-3,-1.244196E0,3.4384392E-2,-4.022561E-1,-8.8771266E-1,-1.4356754E0,8.729868E-1,-1.5836878E-2,-1.3136717E-3,-4.9570415E-2,1.2703004E-2,-4.796682E-2,-1.5136546E0,-4.7309585E-3,7.971556E-3,-5.4665256E-2,8.3455634E-1,-4.7992554E-1,-7.325211E-1,3.336509E-1,9.886768E-2,-8.8953435E-1,-5.1618975E-1,7.39854E-1,1.0927926E-2,-5.464191E-2,-2.3098113E-1,1.0378987E0,8.34292E-3,-1.1999056E0,-1.4230865E-2,5.119751E-2,3.036835E-3,4.298819E-2,-4.74378E-2,1.1213167E-2,-1.1619711E0,8.932381E-3,2.7844238E-1,-7.865502E-1,-7.840469E-3,5.640192E-2,3.7174013E-3,-1.2304503E0,-4.905508E-2,2.215104E-1,1.2098454E-1,-1.2390947E0,8.456614E-1,-1.747536E-2,3.644495E-1,-7.9179484E-1,1.6198972E-1,1.0363736E0,6.677373E-3,1.653995E0,1.3314563E-2,7.5752646E-2,1.1607059E0,-1.895654E-2,3.235242E-2,-3.3717204E-2,2.8018132E-2,-9.2086357E-1,5.465322E-1,-6.8678343E-1,-1.3478689E0,-4.5103594E-3,-4.0558606E-2,1.3981788E-2,-1.1461033E0,-1.6797346E-1,-1.4713553E0,-1.16894655E-1,1.4330603E-3,5.4867096E-2,-1.5652548E0,-1.2826313E-2,-2.0928856E-2,1.1381439E0,-4.51094E-2,-7.3903316E-1,2.3161907E-1,-9.960279E-1,4.6560264E-1,-1.9774406E-1,-9.190352E-1,6.5440494E-1,-4.4657174E-1,-1.2134326E0,2.0243596E-2,-4.8615616E-2,-1.4648716E-2,9.154932E-1,5.316459E-1,-7.029712E-1,-4.3792233E-1,1.144033E0,-6.5556206E-2,-1.1967861E-2,-1.2589233E0,-2.2900717E-3,7.093721E-1,-2.2504624E-2,-5.2806195E-2,3.3994224E-3,-1.3355159E0,-6.1433646E-3,-4.445038E-1,6.8631524E-1,6.809967E-1,-4.4193837E-1,-3.5879256E-3,-1.361839E0,-7.678338E-4,5.394127E-2,-2.5984863E-2,8.1915486E-1,-1.0181916E0,2.5586968E-2,7.8773236E-1,-1.2839216E-1,-2.3637904E-1,1.1225032E0,1.1384259E-2,1.6800109E0,1.3286047E0,-2.306335E-3,6.4863423E-3,-1.0918052E0,-2.0245437E-2,8.277926E-1,-4.404403E-2,-1.4397112E-3,-1.4063337E0,-1.3406164E-2,3.1804223E-2,-1.2665513E0,-5.8789474E-1,4.9745202E-1,-2.7834133E-3,-1.4902576E0,-3.394867E-2,2.3076681E-2,-8.058627E-2,-1.2975751E-2,1.2824448E0,2.9636826E-3,1.2920748E-1,-5.303199E-2,-8.5940474E-1,3.7116003E-1,3.6251936E-2,-2.6104018E-2,-1.9858311E-1,-1.2292544E0,3.3219114E-1,1.0267016E0,-5.544888E-1,2.9195952E-1,-2.4503262E-3,-5.6486454E-2,-2.0922499E-2,9.262265E-1,-1.0784727E0,-1.8892813E-1,6.21949E-3,-1.2970515E0,-8.571755E-3,1.1234752E0,-3.2163751E-3,4.116699E-2,-4.7666166E-2,8.196125E-3,-4.358016E-2,1.6159322E-2,-2.3788229E-1,1.2316258E0,-7.951844E-3,-1.3156383E0,-2.1788871E-3,4.877336E-2,-7.994133E-3,-7.221069E-2,8.815715E-3,-3.9559152E-2,5.0173957E-2,-8.002995E-3,4.3896515E-2,2.311917E-3,1.4340675E-2,-4.064333E-2,-1.4596485E-2,-7.2138175E-2,5.166927E-2,1.4963268E-3,-1.1882008E0,7.5711966E-3,1.0665315E0,-1.33698955E-2,5.69022E-1,-3.4643382E-1,-7.80943E-1,7.181959E-1,-6.7614895E-1,1.1654108E0,1.6394295E-2,1.7021666E0,1.4140214E-2,7.100927E-2,-6.278422E-2,-8.269713E-3,2.370981E-3,5.351896E-2,-1.401405E-2,-7.365904E-2,2.6389018E-2,-2.5688404E-2,-1.491008E-3,-6.622705E-2,1.6126553E-2,-4.4846494E-2,4.477475E-2,-1.4969716E-2,-7.618871E-2,-1.7951624E-2,1.3669016E-2,6.913048E-2,2.2471288E-2,-2.5683736E-2,-5.975997E-2,-2.3507392E-2,-2.128542E-2,3.4422945E-2,1.6094001E-2,-3.7821796E-2,-6.681115E-2,-1.0818745E-2,-2.8375113E-2,2.0555986E-2,-3.811787E-2,5.719042E-2,1.0060507E-2,-4.1233223E-2,-3.306098E-2,2.5904996E-2,5.669148E-2,1.1230162E-3,-6.0911592E-2,-2.7929884E-3,-3.223927E-2,6.1668553E-3,-6.735626E-2,4.849229E-3,6.435143E-2,1.8329477E-3,1.8915398E-2,-3.342695E-2,-2.5490642E-2,6.473979E-2,-6.8863034E-2,-8.80975E-3,-6.5394774E-2,-1.1232309E-2,-5.641536E-3,6.3108824E-2,4.8858292E-2,-7.4586007E-3,-3.4156684E-2,1.2774862E-2,1.3279674E-2,-5.2866425E-2,4.573841E-2,1.0053542E-3,2.402674E-3,-4.7426496E-2,-1.0724792E-5,6.1266113E-2,1.8498866E-2,8.578255E-2],"categories":[],"categories_nodes":[],"categories_segments":[],"categories_sizes":[],"default_left":[0,0,0,0,0,0,0,0,0,0,0,0,0,0,0,0,0,0,0,0,0,0,0,0,0,0,0,0,0,0,0,0,0,0,0,0,0,0,0,0,0,0,0,0,0,0,0,0,0,0,0,0,0,0,0,0,0,0,0,0,0,0,0,0,0,0,0,0,0,0,0,0,0,0,0,0,0,0,0,0,0,0,0,0,0,0,0,0,0,0,0,0,0,0,0,0,0,0,0,0,0,0,0,0,0,0,0,0,0,0,0,0,0,0,0,0,0,0,0,0,0,0,0,0,0,0,0,0,0,0,0,0,0,0,0,0,0,0,0,0,0,0,0,0,0,0,0,0,0,0,0,0,0,0,0,0,0,0,0,0,0,0,0,0,0,0,0,0,0,0,0,0,0,0,0,0,0,0,0,0,0,0,0,0,0,0,0,0,0,0,0,0,0,0,0,0,0,0,0,0,0,0,0,0,0,0,0,0,0,0,0,0,0,0,0,0,0,0,0,0,0,0,0,0,0,0,0,0,0,0,0,0,0,0,0,0,0,0,0,0,0,0,0,0,0,0,0,0,0,0,0,0,0,0,0,0,0,0,0,0,0,0,0,0,0,0,0,0,0,0,0,0,0,0,0,0,0,0,0,0,0,0,0,0,0,0,0,0,0,0,0,0,0,0,0,0,0,0,0,0,0,0,0,0,0,0,0,0,0,0,0,0,0,0,0,0,0,0,0,0,0,0,0,0,0,0,0,0,0,0,0,0,0,0,0,0,0,0,0,0,0,0,0,0,0,0,0,0,0,0,0,0,0,0,0,0,0,0,0,0,0,0,0,0,0,0,0,0,0,0,0,0,0,0,0,0,0,0,0,0,0,0,0,0,0,0,0,0,0],"id":3,"left_children":[1,3,5,7,9,11,13,15,17,19,21,23,25,27,29,31,33,35,37,39,41,43,45,47,-1,49,51,-1,53,55,57,59,61,63,65,67,-1,69,71,-1,-1,73,75,77,79,81,83,85,87,89,91,93,95,-1,-1,-1,-1,97,99,101,-1,-1,-1,103,105,107,109,-1,-1,111,113,115,117,119,121,-1,123,125,127,129,131,133,135,137,139,141,143,145,-1,147,149,151,153,155,157,159,161,-1,-1,-1,163,165,-1,-1,167,-1,169,171,173,-1,175,-1,177,179,181,183,-1,-1,-1,-1,-1,185,-1,-1,-1,187,189,191,193,195,197,199,201,-1,-1,203,205,-1,207,-1,-1,-1,-1,-1,-1,209,-1,211,213,-1,-1,-1,215,-1,217,219,221,223,-1,225,227,229,231,-1,233,-1,-1,235,-1,-1,-1,-1,237,239,241,243,-1,-1,-1,245,247,249,251,-1,-1,253,-1,-1,255,257,259,261,263,265,267,269,271,273,275,-1,-1,-1,277,279,281,283,285,-1,-1,287,-1,289,-1,-1,-1,291,-1,293,295,297,299,-1,301,-1,-1,-1,303,305,-1,307,309,311,313,-1,315,317,-1,-1,319,-1,321,-1,-1,323,-1,325,327,329,331,-1,333,-1,-1,-1,-1,335,-1,337,-1,339,341,-1,-1,343,345,347,349,351,353,-1,-1,-1,355,357,359,-1,361,-1,363,-1,-1,-1,-1,-1,-1,365,367,-1,369,-1,-1,-1,-1,-1,-1,-1,-1,-1,-1,-1,-1,-1,-1,-1,-1,371,-1,373,-1,375,377,379,381,383,385,-1,387,-1,-1,-1,-1,-1,-1,-1,-1,-1,-1,-1,-1,-1,-1,-1,-1,-1,-1,-1,-1,-1,-1,-1,-1,-1,-1,-1,-1,-1,-1,-1,-1,-1,-1,-1,-1,-1,-1,-1,-1,-1,-1,-1,-1,-1,-1,-1,-1,-1,-1,-1,-1,-1,-1,-1,-1,-1,-1,-1,-1,-1,-1,-1,-1,-1,-1,-1,-1,-1,-1,-1,-1],"loss_changes":[5.748236E2,2.5763568E2,1.649963E2,1.4009991E2,1.2114672E2,1.073898E2,4.1834015E1,5.6343483E1,3.8367615E1,1.5656265E1,8.836637E1,1.4794891E1,1.0022182E2,5.4179583E0,2.15448E1,1.7332272E1,2.4742546E1,1.9196873E1,3.7036926E1,6.0758386E0,1.3675247E1,8.262807E1,4.3384613E1,1.2892895E1,0E0,1.8604607E1,7.845569E1,0E0,1.0147476E-1,7.211796E0,1.8166443E1,1.2907646E1,5.3059993E0,2.0360905E1,1.5421009E1,5.783633E0,0E0,3.1752136E1,1.3600719E1,0E0,0E0,5.0688934E0,1.0908053E1,7.789238E1,4.1493126E1,4.2910454E1,2.4911602E1,9.760151E0,7.7349777E0,1.4787584E1,1.2132832E1,2.2132053E1,6.88327E1,0E0,0E0,0E0,0E0,7.863083E0,1.4043854E1,5.0938644E0,0E0,0E0,0E0,1.612323E1,5.5585613E0,1.3655972E1,1.0411873E1,0E0,0E0,7.625686E0,1.4840454E1,7.7969327E0,2.1023598E0,8.161165E0,7.190048E0,0E0,6.5494633E0,4.6099945E1,4.5997192E1,2.8270432E1,1.4671702E1,8.023798E0,3.1301987E1,7.1325493E0,7.181797E0,1.1382961E0,5.1615186E0,7.6071625E0,0E0,1.0042273E1,6.350112E0,5.9000397E0,1.0449335E1,2.051361E1,8.451517E0,1.5339467E1,5.9996857E1,0E0,0E0,0E0,6.367981E0,1.1330795E0,0E0,0E0,1.2130413E1,0E0,8.382726E0,1.3958319E1,1.3698333E1,0E0,4.6588593E0,0E0,5.237671E0,1.8602043E1,1.3029785E1,2.8678942E0,0E0,0E0,0E0,0E0,0E0,2.5274506E0,0E0,0E0,0E0,1.3765957E1,3.1546394E1,1.230925E1,4.0267662E1,2.4445206E1,2.5098236E1,7.9448357E0,6.901024E0,0E0,0E0,1.0933342E1,2.8428452E1,0E0,8.790016E-1,0E0,0E0,0E0,0E0,0E0,0E0,5.8587112E0,0E0,7.236539E0,4.7228622E0,0E0,0E0,0E0,3.182747E0,0E0,9.009588E0,8.106312E0,3.9748573E0,3.4277487E0,0E0,9.735695E0,1.2386223E1,1.9247519E1,4.928015E1,0E0,5.2266235E0,0E0,0E0,5.9589996E0,0E0,0E0,0E0,0E0,7.14303E0,9.146687E0,1.59307E0,6.419678E-1,0E0,0E0,0E0,1.1062279E1,1.0864765E1,7.2647095E0,5.8608994E0,0E0,0E0,1.924118E0,0E0,0E0,3.5792809E0,2.0233889E1,2.5121971E1,6.9063687E0,5.368656E0,3.245021E1,2.1151117E1,2.5580416E0,9.941912E0,1.3596811E1,1.3004974E1,0E0,0E0,0E0,7.158657E0,2.4333718E0,4.624652E0,6.2670407E0,2.0321747E1,0E0,0E0,2.2022781E0,0E0,2.8630862E0,0E0,0E0,0E0,2.7959175E0,0E0,3.4893696E0,5.153027E0,1.3552728E0,4.808352E0,0E0,3.105049E-1,0E0,0E0,0E0,2.2862434E0,6.8472443E0,0E0,1.124951E1,1.2352584E1,1.9364319E1,3.562744E1,0E0,2.8463745E0,3.533783E-1,0E0,0E0,3.7207642E0,0E0,4.1362658E0,0E0,0E0,7.0562744E-1,0E0,4.59724E0,4.7920837E0,7.8956485E0,6.328896E0,0E0,7.994629E0,0E0,0E0,0E0,0E0,3.5287476E-1,0E0,2.1474619E1,0E0,1.8148575E1,6.702645E0,0E0,0E0,5.276495E0,1.419941E0,2.7868313E1,2.2222145E1,1.4935614E1,1.299696E1,0E0,0E0,0E0,4.273222E0,3.2241077E0,1.0338356E1,0E0,7.8476562E0,0E0,3.9709454E0,0E0,0E0,0E0,0E0,0E0,0E0,4.840732E0,1.9505173E1,0E0,2.2155685E0,0E0,0E0,0E0,0E0,0E0,0E0,0E0,0E0,0E0,0E0,0E0,0E0,0E0,0E0,0E0,0E0,1.6080132E0,0E0,7.0381413E0,0E0,6.5022616E0,1.304391E1,7.9642515E0,1.8534174E0,2.739153E0,2.8134583E1,0E0,1.3049316E-1,0E0,0E0,0E0,0E0,0E0,0E0,0E0,0E0,0E0,0E0,0E0,0E0,0E0,0E0,0E0,0E0,0E0,0E0,0E0,0E0,0E0,0E0,0E0,0E0,0E0,0E0,0E0,0E0,0E0,0E0,0E0,0E0,0E0,0E0,0E0,0E0,0E0,0E0,0E0,0E0,0E0,0E0,0E0,0E0,0E0,0E0,0E0,0E0,0E0,0E0,0E0,0E0,0E0,0E0,0E0,0E0,0E0,0E0,0E0,0E0,0E0,0E0,0E0,0E0,0E0,0E0,0E0,0E0,0E0,0E0,0E0,0E0],"parents":[2147483647,0,0,1,1,2,2,3,3,4,4,5,5,6,6,7,7,8,8,9,9,10,10,11,11,12,12,13,13,14,14,15,15,16,16,17,17,18,18,19,19,20,20,21,21,22,22,23,23,25,25,26,26,28,28,29,29,30,30,31,31,32,32,33,33,34,34,35,35,37,37,38,38,41,41,42,42,43,43,44,44,45,45,46,46,47,47,48,48,49,49,50,50,51,51,52,52,57,57,58,58,59,59,63,63,64,64,65,65,66,66,69,69,70,70,71,71,72,72,73,73,74,74,76,76,77,77,78,78,79,79,80,80,81,81,82,82,83,83,84,84,85,85,86,86,87,87,89,89,90,90,91,91,92,92,93,93,94,94,95,95,96,96,100,100,101,101,104,104,106,106,107,107,108,108,110,110,112,112,113,113,114,114,115,115,121,121,125,125,126,126,127,127,128,128,129,129,130,130,131,131,132,132,135,135,136,136,138,138,145,145,147,147,148,148,152,152,154,154,155,155,156,156,157,157,159,159,160,160,161,161,162,162,164,164,167,167,172,172,173,173,174,174,175,175,179,179,180,180,181,181,182,182,185,185,188,188,189,189,190,190,191,191,192,192,193,193,194,194,195,195,196,196,197,197,198,198,202,202,203,203,204,204,205,205,206,206,209,209,211,211,215,215,217,217,218,218,219,219,220,220,222,222,226,226,227,227,229,229,230,230,231,231,232,232,234,234,235,235,238,238,240,240,243,243,245,245,246,246,247,247,248,248,250,250,255,255,257,257,259,259,260,260,263,263,264,264,265,265,266,266,267,267,268,268,272,272,273,273,274,274,276,276,278,278,285,285,286,286,288,288,305,305,307,307,309,309,310,310,311,311,312,312,313,313,314,314,316,316],"right_children":[2,4,6,8,10,12,14,16,18,20,22,24,26,28,30,32,34,36,38,40,42,44,46,48,-1,50,52,-1,54,56,58,60,62,64,66,68,-1,70,72,-1,-1,74,76,78,80,82,84,86,88,90,92,94,96,-1,-1,-1,-1,98,100,102,-1,-1,-1,104,106,108,110,-1,-1,112,114,116,118,120,122,-1,124,126,128,130,132,134,136,138,140,142,144,146,-1,148,150,152,154,156,158,160,162,-1,-1,-1,164,166,-1,-1,168,-1,170,172,174,-1,176,-1,178,180,182,184,-1,-1,-1,-1,-1,186,-1,-1,-1,188,190,192,194,196,198,200,202,-1,-1,204,206,-1,208,-1,-1,-1,-1,-1,-1,210,-1,212,214,-1,-1,-1,216,-1,218,220,222,224,-1,226,228,230,232,-1,234,-1,-1,236,-1,-1,-1,-1,238,240,242,244,-1,-1,-1,246,248,250,252,-1,-1,254,-1,-1,256,258,260,262,264,266,268,270,272,274,276,-1,-1,-1,278,280,282,284,286,-1,-1,288,-1,290,-1,-1,-1,292,-1,294,296,298,300,-1,302,-1,-1,-1,304,306,-1,308,310,312,314,-1,316,318,-1,-1,320,-1,322,-1,-1,324,-1,326,328,330,332,-1,334,-1,-1,-1,-1,336,-1,338,-1,340,342,-1,-1,344,346,348,350,352,354,-1,-1,-1,356,358,360,-1,362,-1,364,-1,-1,-1,-1,-1,-1,366,368,-1,370,-1,-1,-1,-1,-1,-1,-1,-1,-1,-1,-1,-1,-1,-1,-1,-1,372,-1,374,-1,376,378,380,382,384,386,-1,388,-1,-1,-1,-1,-1,-1,-1,-1,-1,-1,-1,-1,-1,-1,-1,-1,-1,-1,-1,-1,-1,-1,-1,-1,-1,-1,-1,-1,-1,-1,-1,-1,-1,-1,-1,-1,-1,-1,-1,-1,-1,-1,-1,-1,-1,-1,-1,-1,-1,-1,-1,-1,-1,-1,-1,-1,-1,-1,-1,-1,-1,-1,-1,-1,-1,-1,-1,-1,-1,-1,-1,-1],"split_conditions":[5.568628E-1,1.764706E-1,9.019608E-1,2.784314E-1,5.490196E-2,9.411765E-2,9.803922E-2,1.4901961E-1,3.9215688E-2,1.4117648E-1,6.5882355E-1,8.117647E-1,1.6470589E-1,3.0980393E-1,3.5686275E-1,2.8627452E-1,1.9607843E-1,3.647059E-1,2.627451E-1,9.803922E-2,6.039216E-1,5.9607846E-1,7.8039217E-1,2.509804E-1,3.1019662E-2,4.6666667E-1,1.3725491E-1,1.70837E-2,2.3921569E-1,4.6666667E-1,7.450981E-2,3.647059E-1,5.372549E-1,5.2156866E-1,5.058824E-1,3.4117648E-1,-4.4775877E-2,1.764706E-1,5.137255E-1,-2.4361152E-2,3.355668E-2,2.0784314E-1,2.8627452E-1,1.8431373E-1,6.2352943E-1,9.019608E-2,6.9411767E-1,2.7058825E-1,7.254902E-1,6.2352943E-1,4.5882353E-1,6.431373E-1,1.5294118E-1,-8.463737E-3,-4.363761E-2,-3.385586E-2,2.7903033E-2,1.4117648E-1,1.9607844E-2,8.509804E-1,-1.1747985E-2,-3.8769178E-2,1.5327759E-2,7.450981E-2,1.8431373E-1,2.5490198E-1,1.3333334E-1,5.420525E-2,-8.59191E-3,3.3333334E-1,3.6862746E-1,5.2156866E-1,4.0784314E-1,3.8431373E-1,7.607843E-1,3.3167783E-2,5.764706E-1,8.627451E-2,1.0980392E-1,4.627451E-1,1.6470589E-1,6.27451E-1,1.1764706E-1,3.372549E-1,3.764706E-1,4.509804E-1,3.4509805E-1,9.607843E-1,3.298038E-3,3.5686275E-1,1.3333334E-1,1.05882354E-1,1.4901961E-1,3.0588236E-1,4E-1,3.8039216E-1,2.627451E-1,3.6366645E-2,-2.5738329E-2,-9.976331E-3,4.3137256E-2,1.764706E-1,2.23448E-3,-3.1543296E-2,7.254902E-1,-5.173452E-2,4.0392157E-1,9.411765E-2,5.6078434E-1,4.530623E-3,7.019608E-1,3.4384392E-2,1.2156863E-1,1.3725491E-1,8.4705883E-1,1.3333334E-1,-1.5836878E-2,-1.3136717E-3,-4.9570415E-2,1.2703004E-2,-4.796682E-2,5.254902E-1,-4.7309585E-3,7.971556E-3,-5.4665256E-2,1.6470589E-1,4.2745098E-1,1.882353E-1,5.9607846E-1,4.117647E-1,6E-1,7.8431375E-2,1.764706E-1,1.0927926E-2,-5.464191E-2,1.1372549E-1,1.01960786E-1,8.34292E-3,6.4705884E-1,-1.4230865E-2,5.119751E-2,3.036835E-3,4.298819E-2,-4.74378E-2,1.1213167E-2,8.627451E-1,8.932381E-3,3.019608E-1,4.1960785E-1,-7.840469E-3,5.640192E-2,3.7174013E-3,8.862745E-1,-4.905508E-2,3.8431373E-1,5.921569E-1,1.1764706E-1,1.1764706E-1,-1.747536E-2,1.4901961E-1,8.3137256E-1,2.627451E-1,1.1372549E-1,6.677373E-3,1.8431373E-1,1.3314563E-2,7.5752646E-2,4.7843137E-1,-1.895654E-2,3.235242E-2,-3.3717204E-2,2.8018132E-2,1.1372549E-1,1.05882354E-1,5.0980395E-1,6.4705884E-1,-4.5103594E-3,-4.0558606E-2,1.3981788E-2,1.5294118E-1,3.9607844E-1,4.7058824E-2,1.0980392E-1,1.4330603E-3,5.4867096E-2,8.862745E-1,-1.2826313E-2,-2.0928856E-2,7.7254903E-1,7.137255E-1,6.8235296E-1,5.019608E-1,3.254902E-1,5.6078434E-1,4.627451E-1,2.1960784E-1,2.9411766E-1,1.8039216E-1,2.1568628E-1,2.0243596E-2,-4.8615616E-2,-1.4648716E-2,2.1176471E-1,1.8431373E-1,6.9411767E-1,5.411765E-1,2.0392157E-1,-6.5556206E-2,-1.1967861E-2,3.921569E-3,-2.2900717E-3,1.1764706E-1,-2.2504624E-2,-5.2806195E-2,3.3994224E-3,2.4313726E-1,-6.1433646E-3,5.2156866E-1,1.9607843E-1,4.4313726E-1,1.5686275E-1,-3.5879256E-3,2.784314E-1,-7.678338E-4,5.394127E-2,-2.5984863E-2,5.686275E-1,7.137255E-1,2.5586968E-2,7.6862746E-1,1.8039216E-1,6.27451E-1,7.8431375E-2,1.1384259E-2,1.5686275E-1,2.0392157E-1,-2.306335E-3,6.4863423E-3,4.1568628E-1,-2.0245437E-2,1.254902E-1,-4.404403E-2,-1.4397112E-3,2.7058825E-1,-1.3406164E-2,4.509804E-1,7.450981E-2,2.7450982E-1,4.8235294E-1,-2.7834133E-3,1.9607843E-1,-3.394867E-2,2.3076681E-2,-8.058627E-2,-1.2975751E-2,3.9215688E-2,2.9636826E-3,5.803922E-1,-5.303199E-2,3.137255E-1,2.784314E-1,3.6251936E-2,-2.6104018E-2,5.686275E-1,5.882353E-1,1.1764706E-1,6.666667E-2,2.784314E-1,2.8627452E-1,-2.4503262E-3,-5.6486454E-2,-2.0922499E-2,6.2352943E-1,6.54902E-1,4.3529412E-1,6.21949E-3,8.8235295E-1,-8.571755E-3,7.176471E-1,-3.2163751E-3,4.116699E-2,-4.7666166E-2,8.196125E-3,-4.358016E-2,1.6159322E-2,6.5882355E-1,1.5686275E-2,-7.951844E-3,8.4313726E-1,-2.1788871E-3,4.877336E-2,-7.994133E-3,-7.221069E-2,8.815715E-3,-3.9559152E-2,5.0173957E-2,-8.002995E-3,4.3896515E-2,2.311917E-3,1.4340675E-2,-4.064333E-2,-1.4596485E-2,-7.2138175E-2,5.166927E-2,1.4963268E-3,8.156863E-1,7.5711966E-3,1.4509805E-1,-1.33698955E-2,6.666667E-1,2.627451E-1,4E-1,6.54902E-1,5.294118E-1,1.7254902E-1,1.6394295E-2,2.1176471E-1,1.4140214E-2,7.100927E-2,-6.278422E-2,-8.269713E-3,2.370981E-3,5.351896E-2,-1.401405E-2,-7.365904E-2,2.6389018E-2,-2.5688404E-2,-1.491008E-3,-6.622705E-2,1.6126553E-2,-4.4846494E-2,4.477475E-2,-1.4969716E-2,-7.618871E-2,-1.7951624E-2,1.3669016E-2,6.913048E-2,2.2471288E-2,-2.5683736E-2,-5.975997E-2,-2.3507392E-2,-2.128542E-2,3.4422945E-2,1.6094001E-2,-3.7821796E-2,-6.681115E-2,-1.0818745E-2,-2.8375113E-2,2.0555986E-2,-3.811787E-2,5.719042E-2,1.0060507E-2,-4.1233223E-2,-3.306098E-2,2.5904996E-2,5.669148E-2,1.1230162E-3,-6.0911592E-2,-2.7929884E-3,-3.223927E-2,6.1668553E-3,-6.735626E-2,4.849229E-3,6.435143E-2,1.8329477E-3,1.8915398E-2,-3.342695E-2,-2.5490642E-2,6.473979E-2,-6.8863034E-2,-8.80975E-3,-6.5394774E-2,-1.1232309E-2,-5.641536E-3,6.3108824E-2,4.8858292E-2,-7.4586007E-3,-3.4156684E-2,1.2774862E-2,1.3279674E-2,-5.2866425E-2,4.573841E-2,1.0053542E-3,2.402674E-3,-4.7426496E-2,-1.0724792E-5,6.1266113E-2,1.8498866E-2,8.578255E-2],"split_indices":[2,2976,85,2315,2160,1969,1725,1919,16,2920,2977,2792,2208,1158,384,1244,1934,1441,2985,3021,3070,2322,2163,2806,0,54,1666,0,2583,320,1888,1441,1583,745,1711,1821,0,2405,1930,0,0,1667,841,0,2972,2350,2546,2360,2765,533,2084,2885,1310,0,0,0,0,1687,2356,1510,0,0,0,1794,1953,97,2666,0,0,611,2540,1657,1024,2645,2927,0,3060,238,1113,2406,768,2905,1704,391,1566,1033,2609,132,0,2830,2076,1796,1573,1969,1384,2632,3071,0,0,0,1941,1381,0,0,2666,0,2288,397,312,0,2040,0,2596,2880,2672,2358,0,0,0,0,0,98,0,0,0,2535,2741,2754,1443,1684,2172,295,1209,0,0,1140,2613,0,2735,0,0,0,0,0,0,974,0,1803,169,0,0,0,252,0,881,499,1942,1681,0,2712,70,2374,2196,0,1153,0,0,1744,0,0,0,0,3014,774,59,35,0,0,0,316,13,664,174,0,0,1214,0,0,1963,1881,3022,637,890,89,2395,2583,2244,1899,502,0,0,0,1803,792,1952,1727,2113,0,0,2253,0,2184,0,0,0,510,0,492,2226,618,2035,0,511,0,0,0,1386,2657,0,656,2832,2977,1100,0,2593,1108,0,0,2427,0,2094,0,0,1897,0,2101,2807,1532,572,0,2979,0,0,0,0,594,0,1754,0,2979,2331,0,0,2636,773,1728,2479,2757,1819,0,0,0,1164,524,1364,0,2039,0,1788,0,0,0,0,0,0,2948,1770,0,1847,0,0,0,0,0,0,0,0,0,0,0,0,0,0,0,0,596,0,366,0,602,3067,3053,1198,757,1822,0,466,0,0,0,0,0,0,0,0,0,0,0,0,0,0,0,0,0,0,0,0,0,0,0,0,0,0,0,0,0,0,0,0,0,0,0,0,0,0,0,0,0,0,0,0,0,0,0,0,0,0,0,0,0,0,0,0,0,0,0,0,0,0,0,0,0,0,0,0,0,0,0,0],"split_type":[0,0,0,0,0,0,0,0,0,0,0,0,0,0,0,0,0,0,0,0,0,0,0,0,0,0,0,0,0,0,0,0,0,0,0,0,0,0,0,0,0,0,0,0,0,0,0,0,0,0,0,0,0,0,0,0,0,0,0,0,0,0,0,0,0,0,0,0,0,0,0,0,0,0,0,0,0,0,0,0,0,0,0,0,0,0,0,0,0,0,0,0,0,0,0,0,0,0,0,0,0,0,0,0,0,0,0,0,0,0,0,0,0,0,0,0,0,0,0,0,0,0,0,0,0,0,0,0,0,0,0,0,0,0,0,0,0,0,0,0,0,0,0,0,0,0,0,0,0,0,0,0,0,0,0,0,0,0,0,0,0,0,0,0,0,0,0,0,0,0,0,0,0,0,0,0,0,0,0,0,0,0,0,0,0,0,0,0,0,0,0,0,0,0,0,0,0,0,0,0,0,0,0,0,0,0,0,0,0,0,0,0,0,0,0,0,0,0,0,0,0,0,0,0,0,0,0,0,0,0,0,0,0,0,0,0,0,0,0,0,0,0,0,0,0,0,0,0,0,0,0,0,0,0,0,0,0,0,0,0,0,0,0,0,0,0,0,0,0,0,0,0,0,0,0,0,0,0,0,0,0,0,0,0,0,0,0,0,0,0,0,0,0,0,0,0,0,0,0,0,0,0,0,0,0,0,0,0,0,0,0,0,0,0,0,0,0,0,0,0,0,0,0,0,0,0,0,0,0,0,0,0,0,0,0,0,0,0,0,0,0,0,0,0,0,0,0,0,0,0,0,0,0,0,0,0,0,0,0,0,0,0,0,0,0,0,0,0,0,0,0,0,0,0,0,0,0,0,0,0,0,0,0,0,0,0,0,0,0],"sum_hessian":[3.186505E3,2.1507568E3,1.035748E3,6.543662E2,1.4963906E3,8.109934E2,2.2475465E2,2.0420486E2,4.5016138E2,1.09760704E2,1.3866299E3,8.144027E1,7.2955316E2,1.0722679E1,2.1403198E2,4.4726315E1,1.5947855E2,1.8667475E1,4.314939E2,8.47952E0,1.0128118E2,1.1596339E3,2.2699596E2,7.6720276E1,4.7199936E0,9.741462E1,6.3213855E2,3.4929278E0,7.2297516E0,8.9732485E0,2.0505873E2,3.55165E1,9.209817E0,4.802202E1,1.1145653E2,1.3192459E1,5.475016E0,4.0658276E2,2.491112E1,3.7357793E0,4.74374E0,8.508392E1,1.6197258E1,9.030319E2,2.5660196E2,1.9513397E2,3.1861979E1,1.56946335E1,6.102564E1,4.0123917E1,5.72907E1,5.9483765E1,5.726548E2,3.2400773E0,3.989674E0,3.9890964E0,4.984152E0,1.0693366E1,1.9436537E2,3.0787289E1,4.7292104E0,4.2267537E0,4.983063E0,3.1363539E1,1.665848E1,6.6444855E1,4.5011673E1,9.955273E0,3.2371864E0,1.6194662E1,3.9038812E2,1.6202341E1,8.708777E0,1.5679319E1,6.94046E1,4.739103E0,1.1458156E1,3.0140674E2,6.016252E2,2.217268E2,3.4875168E1,1.444899E1,1.8068498E2,2.1154303E1,1.0707676E1,7.2268558E0,8.467778E0,5.5047123E1,5.978516E0,2.6908674E1,1.3215243E1,3.2643444E1,2.4647253E1,4.2092274E1,1.7391493E1,4.206483E1,5.3058997E2,5.712515E0,4.9808517E0,3.242668E0,1.911227E2,2.7548769E1,3.2385194E0,4.7297015E0,2.6633837E1,7.451091E0,9.207389E0,3.5060642E1,3.1384212E1,5.988637E0,3.9023033E1,6.478125E0,9.7165365E0,1.0020093E2,2.901872E2,1.09698515E1,5.2324905E0,3.2321453E0,5.476632E0,6.2270093E0,9.45231E0,6.491251E1,4.492094E0,4.7341094E0,6.724046E0,2.4923468E1,2.7648328E2,3.8910362E1,5.6271484E2,3.291113E1,1.8881567E2,9.225864E0,2.5649302E1,4.7283096E0,9.72068E0,2.0183006E1,1.6050198E2,3.2382138E0,1.7916088E1,3.73816E0,6.969516E0,3.2416925E0,3.9851632E0,4.9785023E0,3.4892757E0,5.1803703E1,3.2434185E0,1.2965194E1,1.39434805E1,3.739175E0,9.4760685E0,3.2424815E0,2.9400963E1,5.4707494E0,1.9176504E1,1.5941004E1,2.615127E1,1.166138E1,5.7301126E0,1.3921979E1,2.814285E1,9.814462E1,4.324453E2,3.7266378E0,1.8739606E2,3.2303073E0,2.431846E1,2.289663E1,3.7372088E0,4.733103E0,4.4742866E0,4.2297955E0,3.0830847E1,2.2917456E1,8.466757E0,3.5035454E1,3.9875822E0,5.4814653E0,4.235071E0,7.155157E1,2.8649366E1,2.8197968E2,8.207509E0,3.4867508E0,7.4831004E0,6.1175957E1,3.7365546E0,4.4911747E0,